{"learner":{"attributes":{"scikit_learn":"{\"_estimator_type\": \"classifier\"}"},"feature_names":[],"feature_types":[],"gradient_booster":{"model":{"cats":{"enc":[],"feature_segments":[],"sorted_idx":[]},"gbtree_model_param":{"num_parallel_tree":"1","num_trees":"712"},"iteration_indptr":[0,1,2,3,4,5,6,7,8,9,10,11,12,13,14,15,16,17,18,19,20,21,22,23,24,25,26,27,28,29,30,31,32,33,34,35,36,37,38,39,40,41,42,43,44,45,46,47,48,49,50,51,52,53,54,55,56,57,58,59,60,61,62,63,64,65,66,67,68,69,70,71,72,73,74,75,76,77,78,79,80,81,82,83,84,85,86,87,88,89,90,91,92,93,94,95,96,97,98,99,100,101,102,103,104,105,106,107,108,109,110,111,112,113,114,115,116,117,118,119,120,121,122,123,124,125,126,127,128,129,130,131,132,133,134,135,136,137,138,139,140,141,142,143,144,145,146,147,148,149,150,151,152,153,154,155,156,157,158,159,160,161,162,163,164,165,166,167,168,169,170,171,172,173,174,175,176,177,178,179,180,181,182,183,184,185,186,187,188,189,190,191,192,193,194,195,196,197,198,199,200,201,202,203,204,205,206,207,208,209,210,211,212,213,214,215,216,217,218,219,220,221,222,223,224,225,226,227,228,229,230,231,232,233,234,235,236,237,238,239,240,241,242,243,244,245,246,247,248,249,250,251,252,253,254,255,256,257,258,259,260,261,262,263,264,265,266,267,268,269,270,271,272,273,274,275,276,277,278,279,280,281,282,283,284,285,286,287,288,289,290,291,292,293,294,295,296,297,298,299,300,301,302,303,304,305,306,307,308,309,310,311,312,313,314,315,316,317,318,319,320,321,322,323,324,325,326,327,328,329,330,331,332,333,334,335,336,337,338,339,340,341,342,343,344,345,346,347,348,349,350,351,352,353,354,355,356,357,358,359,360,361,362,363,364,365,366,367,368,369,370,371,372,373,374,375,376,377,378,379,380,381,382,383,384,385,386,387,388,389,390,391,392,393,394,395,396,397,398,399,400,401,402,403,404,405,406,407,408,409,410,411,412,413,414,415,416,417,418,419,420,421,422,423,424,425,426,427,428,429,430,431,432,433,434,435,436,437,438,439,440,441,442,443,444,445,446,447,448,449,450,451,452,453,454,455,456,457,458,459,460,461,462,463,464,465,466,467,468,469,470,471,472,473,474,475,476,477,478,479,480,481,482,483,484,485,486,487,488,489,490,491,492,493,494,495,496,497,498,499,500,501,502,503,504,505,506,507,508,509,510,511,512,513,514,515,516,517,518,519,520,521,522,523,524,525,526,527,528,529,530,531,532,533,534,535,536,537,538,539,540,541,542,543,544,545,546,547,548,549,550,551,552,553,554,555,556,557,558,559,560,561,562,563,564,565,566,567,568,569,570,571,572,573,574,575,576,577,578,579,580,581,582,583,584,585,586,587,588,589,590,591,592,593,594,595,596,597,598,599,600,601,602,603,604,605,606,607,608,609,610,611,612,613,614,615,616,617,618,619,620,621,622,623,624,625,626,627,628,629,630,631,632,633,634,635,636,637,638,639,640,641,642,643,644,645,646,647,648,649,650,651,652,653,654,655,656,657,658,659,660,661,662,663,664,665,666,667,668,669,670,671,672,673,674,675,676,677,678,679,680,681,682,683,684,685,686,687,688,689,690,691,692,693,694,695,696,697,698,699,700,701,702,703,704,705,706,707,708,709,710,711,712],"tree_info":[0,0,0,0,0,0,0,0,0,0,0,0,0,0,0,0,0,0,0,0,0,0,0,0,0,0,0,0,0,0,0,0,0,0,0,0,0,0,0,0,0,0,0,0,0,0,0,0,0,0,0,0,0,0,0,0,0,0,0,0,0,0,0,0,0,0,0,0,0,0,0,0,0,0,0,0,0,0,0,0,0,0,0,0,0,0,0,0,0,0,0,0,0,0,0,0,0,0,0,0,0,0,0,0,0,0,0,0,0,0,0,0,0,0,0,0,0,0,0,0,0,0,0,0,0,0,0,0,0,0,0,0,0,0,0,0,0,0,0,0,0,0,0,0,0,0,0,0,0,0,0,0,0,0,0,0,0,0,0,0,0,0,0,0,0,0,0,0,0,0,0,0,0,0,0,0,0,0,0,0,0,0,0,0,0,0,0,0,0,0,0,0,0,0,0,0,0,0,0,0,0,0,0,0,0,0,0,0,0,0,0,0,0,0,0,0,0,0,0,0,0,0,0,0,0,0,0,0,0,0,0,0,0,0,0,0,0,0,0,0,0,0,0,0,0,0,0,0,0,0,0,0,0,0,0,0,0,0,0,0,0,0,0,0,0,0,0,0,0,0,0,0,0,0,0,0,0,0,0,0,0,0,0,0,0,0,0,0,0,0,0,0,0,0,0,0,0,0,0,0,0,0,0,0,0,0,0,0,0,0,0,0,0,0,0,0,0,0,0,0,0,0,0,0,0,0,0,0,0,0,0,0,0,0,0,0,0,0,0,0,0,0,0,0,0,0,0,0,0,0,0,0,0,0,0,0,0,0,0,0,0,0,0,0,0,0,0,0,0,0,0,0,0,0,0,0,0,0,0,0,0,0,0,0,0,0,0,0,0,0,0,0,0,0,0,0,0,0,0,0,0,0,0,0,0,0,0,0,0,0,0,0,0,0,0,0,0,0,0,0,0,0,0,0,0,0,0,0,0,0,0,0,0,0,0,0,0,0,0,0,0,0,0,0,0,0,0,0,0,0,0,0,0,0,0,0,0,0,0,0,0,0,0,0,0,0,0,0,0,0,0,0,0,0,0,0,0,0,0,0,0,0,0,0,0,0,0,0,0,0,0,0,0,0,0,0,0,0,0,0,0,0,0,0,0,0,0,0,0,0,0,0,0,0,0,0,0,0,0,0,0,0,0,0,0,0,0,0,0,0,0,0,0,0,0,0,0,0,0,0,0,0,0,0,0,0,0,0,0,0,0,0,0,0,0,0,0,0,0,0,0,0,0,0,0,0,0,0,0,0,0,0,0,0,0,0,0,0,0,0,0,0,0,0,0,0,0,0,0,0,0,0,0,0,0,0,0,0,0,0,0,0,0,0,0,0,0,0,0,0,0,0,0,0,0,0,0,0,0,0,0,0,0,0,0,0,0,0,0,0,0,0,0,0,0,0,0,0,0,0,0,0,0,0,0,0,0,0,0,0,0,0,0,0,0,0,0,0,0,0,0,0,0,0,0,0,0,0,0,0,0,0,0,0,0,0,0,0,0,0,0,0,0,0,0,0,0,0,0,0,0,0,0,0,0,0,0,0,0,0,0,0,0,0,0,0,0,0,0,0,0,0],"trees":[{"base_weights":[1.1274683E-3,-6.341681E-1,2.564054E-1,-8.771002E-1,3.6821554E0,-1.0095503E0,4.042152E-1,2.7680206E0,5.9318576E0,-1.0566726E0,-7.262146E-1,2.1599942E-1,1.4300089E-1,2.3417778E-1,2.3219044E0,4.8925304E0,2.0425466E-1,-2.7630666E-2,-9.775102E-1,5.530843E-1,-9.4901055E-1,1.4611531E0,-1.0156452E-1,2.997989E0,-2.4237913E-1,6.8549596E-2,5.758725E0,2.3093563E-1,-1.0064367E0,-5.498215E-1,2.0018744E0,-0E0,-9.6975297E-1,-8.772501E-2,4.471004E0,-4.3214813E-1,5.8242124E-1,1.4981378E0,4.1260004E0,-1.7718462E-2,2.1105969E-1,2.049614E-1,1.23750195E-1,-1.0251196E-2,1.6692674E-2,-1.652748E-2,-2.705454E-2,1.0598064E-3,-1.7066494E-2,6.423512E-2,-5.0519863E-3,-2.5657866E-2,-1.8810663E-2,-2.4603615E-2,4.930504E-3,2.4868097E-2,1.5081652E-1,7.079815E-3,-1.4843378E-2,7.55796E-2,2.2889236E-3,1.8183144E-2,5.6409393E-2,1.3603468E-1,8.917281E-2,-1.4971171E-2,2.2125201E-2],"categories":[],"categories_nodes":[],"categories_segments":[],"categories_sizes":[],"default_left":[0,0,0,0,0,0,0,0,0,0,0,0,0,0,0,0,0,0,0,0,0,0,0,0,0,0,0,0,0,0,0,0,0,0,0,0,0,0,0,0,0,0,0,0,0,0,0,0,0,0,0,0,0,0,0,0,0,0,0,0,0,0,0,0,0,0,0],"id":0,"left_children":[1,3,-1,5,7,9,11,13,15,17,19,-1,21,-1,23,25,-1,-1,27,29,31,33,35,37,39,-1,41,43,45,47,49,-1,51,53,55,57,59,61,63,-1,65,-1,-1,-1,-1,-1,-1,-1,-1,-1,-1,-1,-1,-1,-1,-1,-1,-1,-1,-1,-1,-1,-1,-1,-1,-1,-1],"loss_changes":[3.534718E4,5.4800845E3,0E0,8.404519E2,5.493218E2,5.7871582E1,9.6594055E2,5.392694E2,1.18295166E2,4.3007812E0,1.846394E2,0E0,1.4624178E2,0E0,3.2966083E2,8.4551636E1,0E0,0E0,3.094519E1,1.553591E2,1.1274048E1,3.3420306E2,8.619204E1,2.4271497E2,8.658555E0,0E0,3.0832275E1,5.897493E0,1.3400513E1,4.2392845E0,4.8785248E1,0E0,2.143219E0,1.2395179E1,1.0988275E2,2.7314384E1,1.4225575E2,3.312274E1,3.8927246E1,0E0,1.1151936E1,0E0,0E0,0E0,0E0,0E0,0E0,0E0,0E0,0E0,0E0,0E0,0E0,0E0,0E0,0E0,0E0,0E0,0E0,0E0,0E0,0E0,0E0,0E0,0E0,0E0,0E0],"parents":[2147483647,0,0,1,1,3,3,4,4,5,5,6,6,7,7,8,8,9,9,10,10,12,12,14,14,15,15,18,18,19,19,20,20,21,21,22,22,23,23,24,24,26,26,27,27,28,28,29,29,30,30,32,32,33,33,34,34,35,35,36,36,37,37,38,38,40,40],"right_children":[2,4,-1,6,8,10,12,14,16,18,20,-1,22,-1,24,26,-1,-1,28,30,32,34,36,38,40,-1,42,44,46,48,50,-1,52,54,56,58,60,62,64,-1,66,-1,-1,-1,-1,-1,-1,-1,-1,-1,-1,-1,-1,-1,-1,-1,-1,-1,-1,-1,-1,-1,-1,-1,-1,-1,-1],"split_conditions":[5.5941558E-3,2.5204E-1,2.564054E-1,3.846E-2,8.0591E-1,1.032E-2,8.8094E-1,9.6101E-1,9.980974E-1,4.49E-3,3E0,2.1599942E-1,2E0,2.3417778E-1,9.976962E-1,7.513935E0,2.0425466E-1,-2.7630666E-2,6.3546E-1,2.4545866E-3,7.7337E-1,2.4545866E-3,1.3159E-1,4.022682E-1,4.980314E-1,6.8549596E-2,8.9448637E-1,1.0184565E0,1.3017267E0,7.9122E-1,7.849767E0,-0E0,3.027E-2,7.374621E0,7.0908437E0,1E0,9.4294E-1,2.4545866E-3,9.9466085E-1,-1.7718462E-2,7.513935E0,2.049614E-1,1.23750195E-1,-1.0251196E-2,1.6692674E-2,-1.652748E-2,-2.705454E-2,1.0598064E-3,-1.7066494E-2,6.423512E-2,-5.0519863E-3,-2.5657866E-2,-1.8810663E-2,-2.4603615E-2,4.930504E-3,2.4868097E-2,1.5081652E-1,7.079815E-3,-1.4843378E-2,7.55796E-2,2.2889236E-3,1.8183144E-2,5.6409393E-2,1.3603468E-1,8.917281E-2,-1.4971171E-2,2.2125201E-2],"split_indices":[15,9,0,9,9,9,10,10,10,9,1,0,1,0,14,0,0,0,10,4,10,4,9,9,9,0,4,6,1,10,0,0,9,0,0,6,10,4,4,0,0,0,0,0,0,0,0,0,0,0,0,0,0,0,0,0,0,0,0,0,0,0,0,0,0,0,0],"split_type":[0,0,0,0,0,0,0,0,0,0,0,0,0,0,0,0,0,0,0,0,0,0,0,0,0,0,0,0,0,0,0,0,0,0,0,0,0,0,0,0,0,0,0,0,0,0,0,0,0,0,0,0,0,0,0,0,0,0,0,0,0,0,0,0,0,0,0],"sum_hessian":[5.5541743E3,5.2236465E3,3.305277E2,4.9462646E3,2.773816E2,4.483544E3,4.627209E2,1.9914116E2,7.8240425E1,3.839696E3,6.438479E2,1.3443373E1,4.492775E2,1.15613E1,1.8757985E2,5.449047E1,2.3749958E1,2.9773484E3,8.6234753E2,9.482059E1,5.4902734E2,6.990553E1,3.7937198E2,1.4850446E2,3.90754E1,1.6759405E1,3.7731064E1,1.9448078E1,8.428995E2,5.3952736E1,4.086785E1,1.1292433E1,5.377349E2,4.6693314E1,2.3212223E1,2.566788E2,1.2269318E2,6.5065926E1,8.343853E1,2.0075436E1,1.8999966E1,8.424514E0,2.9306551E1,7.169799E0,1.227828E1,1.0611302E2,7.3678644E2,8.066024E0,4.588671E1,3.3339565E1,7.5282884E0,4.6738126E2,7.0353645E1,1.1292433E1,3.540088E1,7.3490434E0,1.5863179E1,4.328766E1,2.1339113E2,1.9985813E1,1.0270737E2,3.2174473E1,3.2891453E1,2.6259388E1,5.7179146E1,8.155646E0,1.084432E1],"tree_param":{"num_deleted":"0","num_feature":"17","num_nodes":"67","size_leaf_vector":"1"}},{"base_weights":[1.1070092E-2,-6.1733556E-1,2.0430863E-1,-8.6171985E-1,3.4894614E0,-9.9909264E-1,4.5849156E-1,2.7516687E0,5.3033104E0,-1.056002E0,-7.067727E-1,1.851009E-1,1.888119E-1,1.9940375E-1,2.322079E0,6.535468E-2,5.803835E0,-2.796773E-2,-1.0089166E0,6.068663E-1,-9.471644E-1,1.0661225E0,-2.4469051E-1,2.9433186E0,-0E0,1.8497601E-1,5.1549535E0,-2.679993E-2,-8.761098E-1,2.008349E0,-2.788514E-1,-6.592034E-4,-9.6250266E-1,6.376668E-2,1.9811581E0,3.3967188E-1,-6.559759E-1,1.4474711E0,3.7016268E0,-1.6181378E-2,4.631815E-1,4.420202E0,1.6000776E-1,-8.825473E-3,-2.5340175E-2,9.201974E-2,1.3308357E-2,1.4116076E-2,-2.1806268E-2,-2.193046E-2,-2.6879411E-2,2.5027512E-2,-7.7072233E-3,1.2309874E-1,3.0407792E-2,-2.0387338E-2,1.8610975E-2,-1.9527834E-2,1.0530342E-2,-0E0,5.815174E-2,1.3219568E-1,7.605321E-2,-1.0112174E-2,2.8741969E-2,1.3349877E-1,6.1674125E-2],"categories":[],"categories_nodes":[],"categories_segments":[],"categories_sizes":[],"default_left":[0,0,0,0,0,0,0,0,0,0,0,0,0,0,0,0,0,0,0,0,0,0,0,0,0,0,0,0,0,0,0,0,0,0,0,0,0,0,0,0,0,0,0,0,0,0,0,0,0,0,0,0,0,0,0,0,0,0,0,0,0,0,0,0,0,0,0],"id":1,"left_children":[1,3,-1,5,7,9,11,13,15,17,19,-1,21,-1,23,-1,25,-1,27,29,31,33,35,37,39,-1,41,-1,43,45,47,-1,49,51,53,55,57,59,61,-1,63,65,-1,-1,-1,-1,-1,-1,-1,-1,-1,-1,-1,-1,-1,-1,-1,-1,-1,-1,-1,-1,-1,-1,-1,-1,-1],"loss_changes":[2.7957807E4,5.1950547E3,0E0,8.868225E2,3.6808813E2,7.165332E1,8.346989E2,4.2633643E2,9.2423584E1,3.7304688E0,2.3019748E2,0E0,1.6977168E2,0E0,2.8152356E2,0E0,1.5454102E1,0E0,5.8950195E0,1.414881E2,8.005859E0,1.3390054E2,7.199208E1,1.6491711E2,1.2658411E1,0E0,4.6485596E0,0E0,2.1092163E1,9.913612E1,3.3802906E1,0E0,3.359253E0,2.4722136E1,1.6215506E2,5.4655594E1,2.0564598E1,6.501972E1,8.600415E1,0E0,1.4789423E1,3.6909668E1,0E0,0E0,0E0,0E0,0E0,0E0,0E0,0E0,0E0,0E0,0E0,0E0,0E0,0E0,0E0,0E0,0E0,0E0,0E0,0E0,0E0,0E0,0E0,0E0,0E0],"parents":[2147483647,0,0,1,1,3,3,4,4,5,5,6,6,7,7,8,8,9,9,10,10,12,12,14,14,16,16,18,18,19,19,20,20,21,21,22,22,23,23,24,24,26,26,28,28,29,29,30,30,32,32,33,33,34,34,35,35,36,36,37,37,38,38,40,40,41,41],"right_children":[2,4,-1,6,8,10,12,14,16,18,20,-1,22,-1,24,-1,26,-1,28,30,32,34,36,38,40,-1,42,-1,44,46,48,-1,50,52,54,56,58,60,62,-1,64,66,-1,-1,-1,-1,-1,-1,-1,-1,-1,-1,-1,-1,-1,-1,-1,-1,-1,-1,-1,-1,-1,-1,-1,-1,-1],"split_conditions":[5.5941558E-3,2.7651E-1,2.0430863E-1,4.104E-2,9.9236536E-1,9.42E-3,8.8506E-1,9.637523E-1,2.4995898E-1,1.1806662E0,3E0,1.851009E-1,9.8500973E-1,1.9940375E-1,9.872346E-1,6.535468E-2,9.335243E-1,-2.796773E-2,4.62E-3,2E0,7.6281E-1,3.5298714E-1,6.4610225E-1,4.022682E-1,4.980314E-1,1.8497601E-1,9.980974E-1,-2.679993E-2,1.3017267E0,9.776532E-1,6.5124375E-1,-6.592034E-4,6.3552153E-1,1.3017267E0,6.4966524E-1,6.5201764E0,2.2979175E-1,3.5298714E-1,9.470875E-1,-1.6181378E-2,7.513935E0,8E-1,1.6000776E-1,-8.825473E-3,-2.5340175E-2,9.201974E-2,1.3308357E-2,1.4116076E-2,-2.1806268E-2,-2.193046E-2,-2.6879411E-2,2.5027512E-2,-7.7072233E-3,1.2309874E-1,3.0407792E-2,-2.0387338E-2,1.8610975E-2,-1.9527834E-2,1.0530342E-2,-0E0,5.815174E-2,1.3219568E-1,7.605321E-2,-1.0112174E-2,2.8741969E-2,1.3349877E-1,6.1674125E-2],"split_indices":[15,9,0,9,10,9,10,10,7,7,1,0,12,0,14,0,12,0,9,3,10,13,13,9,9,0,10,0,1,12,13,0,13,1,13,0,9,13,12,0,0,13,0,0,0,0,0,0,0,0,0,0,0,0,0,0,0,0,0,0,0,0,0,0,0,0,0],"split_type":[0,0,0,0,0,0,0,0,0,0,0,0,0,0,0,0,0,0,0,0,0,0,0,0,0,0,0,0,0,0,0,0,0,0,0,0,0,0,0,0,0,0,0,0,0,0,0,0,0,0,0,0,0,0,0,0,0,0,0,0,0,0,0,0,0,0,0],"sum_hessian":[5.5808555E3,5.173701E3,4.071542E2,4.8840693E3,2.8963184E2,4.424452E3,4.5961722E2,2.0805801E2,8.157382E1,3.6992185E3,7.252337E2,1.6457031E1,4.431602E2,1.4795449E1,1.9326257E2,1.3763822E1,6.781E1,2.0704731E3,1.6287452E3,1.1150637E2,6.137273E2,1.4655E2,2.9661017E2,1.5238277E2,4.08798E1,1.7554228E1,5.025577E1,1.2592886E3,3.6945673E2,4.2947006E1,6.8559364E1,1.0805107E1,6.0292224E2,7.082977E1,7.572023E1,1.2193419E2,1.7467598E2,5.2602238E1,9.978053E1,1.7494707E1,2.3385092E1,3.3644302E1,1.6611471E1,6.678784E1,3.0266888E2,1.985159E1,2.3095417E1,2.7532776E1,4.102659E1,2.8062277E2,3.2229944E2,2.0217506E1,5.061227E1,1.5235085E1,6.0485146E1,3.0271112E1,9.166308E1,1.5965375E2,1.5022231E1,1.925758E1,3.3344658E1,3.0835695E1,6.894483E1,9.908463E0,1.3476629E1,2.2674623E1,1.0969678E1],"tree_param":{"num_deleted":"0","num_feature":"17","num_nodes":"67","size_leaf_vector":"1"}},{"base_weights":[1.0988431E-2,-6.0459167E-1,1.7133346E-1,-8.2871014E-1,2.8735676E0,-9.6475166E-1,3.2475036E-1,2.0010252E0,4.5001855E0,-1.0281211E0,-6.142015E-1,1.1947165E0,-1.07172675E-1,2.5270557E0,-2.1277374E-1,3.9222226E0,1.5087508E-1,-2.788127E-2,-9.706579E-1,-1.9033045E-1,-8.1997144E-1,4.32804E-1,1.8258338E0,5.247905E-1,-5.655002E-1,1.2956249E0,3.087059E0,2.1407841E-1,-5.8366746E-1,1.355962E-1,3.3535757E0,-1.0200734E0,-8.290884E-1,5.4760134E-1,-5.035361E-1,-2.5296409E-2,-6.7616206E-1,9.2712814E-1,-8.4654726E-2,4.4323306E0,1.0226849E0,2.853858E-1,6.9672674E-2,-7.342254E-2,-7.013757E-1,3.9965972E-1,2.1961794E0,5.839567E0,2.387364E0,-1.0969688E-2,2.4092592E-2,-5.39412E-3,-1.8342068E-2,1.308846E0,3.9839468E0,-2.7559787E-2,-2.488049E-2,-1.3896284E-2,-2.4337992E-2,3.371445E-2,-2.196023E-2,-4.210941E-3,-2.0307904E-2,4.1501364E-3,-2.0390015E-2,7.418526E-4,3.922043E-2,3.6996037E-3,-9.009505E-3,5.109351E-2,1.5154408E-1,8.2534164E-2,1.011749E-2,-1.9435411E-2,1.6666139E-2,1.4925871E-2,-1.7924894E-2,-2.5430765E-2,-1.39790205E-2,-2.5421274E-5,2.4248542E-2,2.0421533E-2,6.84691E-2,1.0095065E-1,1.7212951E-1,9.8984204E-2,4.305302E-2,6.0849026E-2,7.123214E-5,1.1982172E-1,5.6515295E-2],"categories":[],"categories_nodes":[],"categories_segments":[],"categories_sizes":[],"default_left":[0,0,0,0,0,0,0,0,0,0,0,0,0,0,0,0,0,0,0,0,0,0,0,0,0,0,0,0,0,0,0,0,0,0,0,0,0,0,0,0,0,0,0,0,0,0,0,0,0,0,0,0,0,0,0,0,0,0,0,0,0,0,0,0,0,0,0,0,0,0,0,0,0,0,0,0,0,0,0,0,0,0,0,0,0,0,0,0,0,0,0],"id":2,"left_children":[1,3,-1,5,7,9,11,13,15,17,19,21,23,25,27,29,-1,-1,31,33,35,37,39,41,43,45,47,49,51,-1,53,55,57,59,61,-1,63,65,67,69,71,73,-1,75,77,79,81,83,85,-1,-1,-1,-1,87,89,-1,-1,-1,-1,-1,-1,-1,-1,-1,-1,-1,-1,-1,-1,-1,-1,-1,-1,-1,-1,-1,-1,-1,-1,-1,-1,-1,-1,-1,-1,-1,-1,-1,-1,-1,-1],"loss_changes":[2.303729E4,3.99917E3,0E0,7.5699976E2,4.2679736E2,9.401465E1,1.9201453E2,2.4002899E2,5.5099365E1,1.0225098E1,5.7107193E1,7.909976E1,9.894324E1,1.06879395E2,6.706601E0,3.723413E1,0E0,0E0,1.1085571E1,5.101129E1,8.945984E0,2.0752056E1,1.8377026E2,7.23775E1,1.2697929E1,4.084153E1,1.9641467E2,9.423472E0,3.362751E-1,0E0,6.7428345E1,1.3126221E0,1.5766998E1,7.2075226E1,1.4473572E1,0E0,2.5291115E1,2.1149113E1,2.5630527E0,5.858203E1,9.536219E1,5.0243877E1,0E0,1.9095984E1,5.397667E0,6.92321E0,1.2974304E1,1.2399292E0,8.512067E1,0E0,0E0,0E0,0E0,2.047742E1,3.949878E1,0E0,0E0,0E0,0E0,0E0,0E0,0E0,0E0,0E0,0E0,0E0,0E0,0E0,0E0,0E0,0E0,0E0,0E0,0E0,0E0,0E0,0E0,0E0,0E0,0E0,0E0,0E0,0E0,0E0,0E0,0E0,0E0,0E0,0E0,0E0,0E0],"parents":[2147483647,0,0,1,1,3,3,4,4,5,5,6,6,7,7,8,8,9,9,10,10,11,11,12,12,13,13,14,14,15,15,18,18,19,19,20,20,21,21,22,22,23,23,24,24,25,25,26,26,27,27,28,28,30,30,31,31,32,32,33,33,34,34,36,36,37,37,38,38,39,39,40,40,41,41,43,43,44,44,45,45,46,46,47,47,48,48,53,53,54,54],"right_children":[2,4,-1,6,8,10,12,14,16,18,20,22,24,26,28,30,-1,-1,32,34,36,38,40,42,44,46,48,50,52,-1,54,56,58,60,62,-1,64,66,68,70,72,74,-1,76,78,80,82,84,86,-1,-1,-1,-1,88,90,-1,-1,-1,-1,-1,-1,-1,-1,-1,-1,-1,-1,-1,-1,-1,-1,-1,-1,-1,-1,-1,-1,-1,-1,-1,-1,-1,-1,-1,-1,-1,-1,-1,-1,-1,-1],"split_conditions":[5.5941558E-3,9.6101E-1,1.7133346E-1,8.7285E-1,9.8999393E-1,7.6281E-1,9.5956117E-1,9.976962E-1,9.980974E-1,1.0184565E0,9.776532E-1,3.5298714E-1,6.4966524E-1,3.5298714E-1,6.819223E-1,9.6957207E-1,1.5087508E-1,-2.788127E-2,6.2592E-1,2E0,7.7117515E0,9.2574E-1,6.4610225E-1,4.500771E-1,1.8131051E0,9.7355E-1,6.5E-1,9.7636E-1,7.5E-1,1.355962E-1,7.513935E0,3.4889E-1,2E0,8.1E0,8.038847E-1,-2.5296409E-2,7.9687495E0,7.6528573E0,4.7378337E-1,6.5201764E0,1.6643443E0,6.5201764E0,6.9672674E-2,7.9030514E-1,7.513935E0,2.4545866E-3,7.513935E0,4.500771E-1,9.841619E-1,-1.0969688E-2,2.4092592E-2,-5.39412E-3,-1.8342068E-2,6.959243E-1,8E-1,-2.7559787E-2,-2.488049E-2,-1.3896284E-2,-2.4337992E-2,3.371445E-2,-2.196023E-2,-4.210941E-3,-2.0307904E-2,4.1501364E-3,-2.0390015E-2,7.418526E-4,3.922043E-2,3.6996037E-3,-9.009505E-3,5.109351E-2,1.5154408E-1,8.2534164E-2,1.011749E-2,-1.9435411E-2,1.6666139E-2,1.4925871E-2,-1.7924894E-2,-2.5430765E-2,-1.39790205E-2,-2.5421274E-5,2.4248542E-2,2.0421533E-2,6.84691E-2,1.0095065E-1,1.7212951E-1,9.8984204E-2,4.305302E-2,6.0849026E-2,7.123214E-5,1.1982172E-1,5.6515295E-2],"split_indices":[15,10,0,10,10,10,12,14,10,6,12,13,13,13,13,12,0,0,10,3,0,10,13,13,3,10,13,10,13,0,0,10,3,0,4,0,0,0,4,0,3,0,0,13,0,4,0,13,12,0,0,0,0,13,13,0,0,0,0,0,0,0,0,0,0,0,0,0,0,0,0,0,0,0,0,0,0,0,0,0,0,0,0,0,0,0,0,0,0,0,0],"split_type":[0,0,0,0,0,0,0,0,0,0,0,0,0,0,0,0,0,0,0,0,0,0,0,0,0,0,0,0,0,0,0,0,0,0,0,0,0,0,0,0,0,0,0,0,0,0,0,0,0,0,0,0,0,0,0,0,0,0,0,0,0,0,0,0,0,0,0,0,0,0,0,0,0,0,0,0,0,0,0,0,0,0,0,0,0,0,0,0,0,0,0],"sum_hessian":[5.599383E3,5.127711E3,4.7167172E2,4.8182476E3,3.0946365E2,4.310597E3,5.0765015E2,2.0323566E2,1.06228E2,3.6473086E3,6.6328864E2,1.6830574E2,3.3934442E2,1.6433601E2,3.8899635E1,7.8276566E1,2.7951435E1,1.7589878E3,1.8883209E3,2.1849338E2,4.447953E2,7.754432E1,9.076143E1,1.4197635E2,1.9736807E2,5.2848854E1,1.1148716E2,1.7462614E1,2.1437023E1,1.9982138E1,5.8294426E1,1.3913438E3,4.969771E2,6.4233826E1,1.5425955E2,2.0019118E2,2.4460413E2,3.9882862E1,3.7661457E1,2.0047228E1,7.07142E1,1.2938115E2,1.2595202E1,4.412027E1,1.532478E2,2.7634844E1,2.5214012E1,2.0813475E1,9.067368E1,9.016488E0,8.446126E0,7.6616406E0,1.3775383E1,1.475942E1,4.3535007E1,6.274701E2,7.6387366E2,1.5126437E2,3.4571274E2,4.1863697E1,2.2370132E1,7.2875374E1,8.138417E1,2.9913889E1,2.1469023E2,1.6936642E1,2.2946218E1,1.9199797E1,1.8461658E1,8.709897E0,1.1337331E1,1.4477509E1,5.6236694E1,3.2768597E1,9.661255E1,2.1067396E1,2.3052874E1,4.979096E1,1.0345684E2,1.5869427E1,1.1765417E1,7.4985375E0,1.7715473E1,8.699923E0,1.2113553E1,2.7462542E1,6.3211143E1,7.3602157E0,7.399205E0,2.976872E1,1.3766285E1],"tree_param":{"num_deleted":"0","num_feature":"17","num_nodes":"91","size_leaf_vector":"1"}},{"base_weights":[-2.7058667E-3,-7.647322E-1,4.717124E0,-8.324668E-1,1.4522344E-1,2.981048E0,1.4837533E-1,-9.748002E-1,5.388996E-1,3.3894637E0,1.1684753E0,-1.044529E0,-6.441488E-1,1.703121E-1,2.6640797E-1,1.6492978E-1,3.151169E0,6.3402645E-2,2.7157903E0,-2.7762923E-2,-9.9335337E-1,7.5504965E-1,-9.1890454E-1,1.084644E0,-1.3920926E-1,1.9184077E0,4.0404315E0,3.9595342E-1,-1.381383E-2,4.425023E-2,8.245718E-2,-2.6393337E-2,-8.717009E-1,-4.2994687E-1,2.287266E0,1.0985614E-3,-9.380356E-1,2.1534128E0,6.7052114E-1,-4.6086115E-1,3.070224E-1,-0E0,2.1378713E0,1.3365544E-1,3.4398897E0,-7.985158E-3,2.8938875E-2,-6.112337E-3,-2.6003484E-2,-8.5788127E-4,-1.955089E-2,9.3947746E-2,2.0069964E-2,-2.6236853E-2,-2.1156376E-2,-7.0651306E-4,7.701114E-2,-6.0310974E-3,2.3011342E-2,7.27532E-3,-1.5906472E-2,-1.44935055E-2,2.5295552E-2,8.595583E-2,4.7249902E-2,7.347284E-2,1.3259679E-1],"categories":[],"categories_nodes":[],"categories_segments":[],"categories_sizes":[],"default_left":[0,0,0,0,0,0,0,0,0,0,0,0,0,0,0,0,0,0,0,0,0,0,0,0,0,0,0,0,0,0,0,0,0,0,0,0,0,0,0,0,0,0,0,0,0,0,0,0,0,0,0,0,0,0,0,0,0,0,0,0,0,0,0,0,0,0,0],"id":3,"left_children":[1,3,5,7,-1,9,-1,11,13,15,17,19,21,-1,23,-1,25,27,29,-1,31,33,35,37,39,41,43,45,-1,-1,-1,-1,47,49,51,-1,53,55,57,59,61,-1,63,-1,65,-1,-1,-1,-1,-1,-1,-1,-1,-1,-1,-1,-1,-1,-1,-1,-1,-1,-1,-1,-1,-1,-1],"loss_changes":[2.0018338E4,2.0912173E3,1.4225254E3,9.2684106E2,0E0,2.1384229E2,0E0,9.727124E1,7.3686426E2,1.4855249E2,9.517987E1,4.666992E0,2.9037067E2,0E0,1.430035E2,0E0,2.372522E2,7.0512695E0,2.429535E0,0E0,4.9023438E0,2.2706516E2,1.2236755E1,5.9731613E1,4.143038E1,4.1708405E1,6.777612E1,1.3166142E1,0E0,0E0,0E0,0E0,3.3447388E1,8.76086E0,1.0697458E2,0E0,3.8565063E0,7.4548874E1,2.2332954E1,2.0477024E1,7.216843E1,0E0,2.1254303E1,0E0,6.8310425E1,0E0,0E0,0E0,0E0,0E0,0E0,0E0,0E0,0E0,0E0,0E0,0E0,0E0,0E0,0E0,0E0,0E0,0E0,0E0,0E0,0E0,0E0],"parents":[2147483647,0,0,1,1,2,2,3,3,5,5,7,7,8,8,9,9,10,10,11,11,12,12,14,14,16,16,17,17,18,18,20,20,21,21,22,22,23,23,24,24,25,25,26,26,27,27,32,32,33,33,34,34,36,36,37,37,38,38,39,39,40,40,42,42,44,44],"right_children":[2,4,6,8,-1,10,-1,12,14,16,18,20,22,-1,24,-1,26,28,30,-1,32,34,36,38,40,42,44,46,-1,-1,-1,-1,48,50,52,-1,54,56,58,60,62,-1,64,-1,66,-1,-1,-1,-1,-1,-1,-1,-1,-1,-1,-1,-1,-1,-1,-1,-1,-1,-1,-1,-1,-1,-1],"split_conditions":[3.0341E-1,5.5941558E-3,5.5941558E-3,4.711E-2,1.4522344E-1,9.976962E-1,1.4837533E-1,9.42E-3,8.9277935E-1,9.6637E-1,9.8999393E-1,1.1806662E0,3E0,1.703121E-1,9.8500973E-1,1.6492978E-1,6.0045E-1,9.6E0,9.952E-1,-2.7762923E-2,4.56E-3,2.4545866E-3,7.6281E-1,2E0,1.3159E-1,6.2E0,9.6957207E-1,7.513935E0,-1.381383E-2,4.425023E-2,8.245718E-2,-2.6393337E-2,1.3017267E0,8.1060386E-1,9.909175E-1,1.0985614E-3,1.938E-2,6.893682E0,2.4995898E-1,1E0,7.513935E0,-0E0,2E0,1.3365544E-1,9.980974E-1,-7.985158E-3,2.8938875E-2,-6.112337E-3,-2.6003484E-2,-8.5788127E-4,-1.955089E-2,9.3947746E-2,2.0069964E-2,-2.6236853E-2,-2.1156376E-2,-7.0651306E-4,7.701114E-2,-6.0310974E-3,2.3011342E-2,7.27532E-3,-1.5906472E-2,-1.44935055E-2,2.5295552E-2,8.595583E-2,4.7249902E-2,7.347284E-2,1.3259679E-1],"split_indices":[9,15,15,9,0,14,0,9,10,10,10,7,1,0,12,0,9,0,10,0,9,4,10,3,9,0,12,0,0,0,0,0,1,12,12,0,9,0,7,6,0,0,3,0,10,0,0,0,0,0,0,0,0,0,0,0,0,0,0,0,0,0,0,0,0,0,0],"split_type":[0,0,0,0,0,0,0,0,0,0,0,0,0,0,0,0,0,0,0,0,0,0,0,0,0,0,0,0,0,0,0,0,0,0,0,0,0,0,0,0,0,0,0,0,0,0,0,0,0,0,0,0,0,0,0,0,0,0,0,0,0,0,0,0,0,0,0],"sum_hessian":[5.5644434E3,4.7918286E3,7.7261475E2,4.742945E3,4.8883633E1,2.9760266E2,4.750121E2,4.2976836E3,4.4526114E2,2.4181923E2,5.578344E1,3.5456501E3,7.5203345E2,1.7832504E1,4.2742862E2,1.5301179E1,2.2651805E2,3.3441372E1,2.2342068E1,1.9782252E3,1.567425E3,1.2273218E2,6.293013E2,1.4161134E2,2.858173E2,9.665181E1,1.2986624E2,2.2499E1,1.0942372E1,9.594728E0,1.2747338E1,1.188978E3,3.784471E2,6.939657E1,5.333561E1,1.1570009E1,6.1773126E2,3.7846474E1,1.0376488E2,1.6693872E2,1.1887856E2,9.907562E0,8.674425E1,4.0679756E1,8.9186485E1,1.1307283E1,1.1191717E1,7.142808E1,3.0701904E2,3.3155704E1,3.6240864E1,2.676324E1,2.6572369E1,3.3998083E2,2.7775046E2,1.0721196E1,2.7125277E1,2.027692E1,8.348795E1,2.8682028E1,1.382567E2,5.173794E1,6.7140625E1,1.4192305E1,7.255195E1,6.9562386E1,1.9624102E1],"tree_param":{"num_deleted":"0","num_feature":"17","num_nodes":"67","size_leaf_vector":"1"}},{"base_weights":[-6.9170287E-3,-5.9514576E-1,1.3151881E-1,-8.258666E-1,2.3579164E0,-9.54278E-1,2.9552776E-1,1.2526951E0,3.435793E0,-1.021892E0,-5.872155E-1,1.1390114E0,-1.5142277E-1,1.5404704E0,-1.5318792E-1,3.7809694E0,1.9531049E0,-2.7795902E-2,-9.6181905E-1,-1.3688572E-1,-8.0715656E-1,8.757131E-1,3.184917E0,-7.4286E-1,4.7209606E-2,-1.4262559E-1,1.7472306E0,-4.890053E-1,1.0445588E-2,1.2015545E-1,3.2728598E0,6.19348E-1,7.767469E-2,-1.0076494E0,-8.297968E-1,6.3011575E-1,-4.847517E-1,-2.6516946E-2,-7.1714693E-1,2.1012454E0,4.0260667E-1,3.957678E-2,1.0944049E-1,-2.3762878E-2,-2.812787E-1,-7.0173144E-2,5.9080396E-2,-1.2857231E-2,4.920506E-3,5.282119E-1,2.1507282E0,-1.6873205E-2,-2.6847094E-3,1.2509178E-1,2.7787156E0,-0E0,2.9668016E-2,-2.7775986E-2,-2.4901345E-2,-1.5129951E-2,-2.3874244E-2,-8.415025E-3,2.5513297E-2,-2.0730915E-2,-6.44621E-3,-1.9771278E-2,5.984712E-3,2.1079266E-2,6.053414E-2,-1.454477E-2,1.5840841E-2,-1.1982623E-2,-0E0,1.31730735E-2,-6.4096795E-3,-1.4544331E-2,3.5393953E-2,8.952605E-2,4.509806E-2,5.0525647E-2,1.0848083E-1],"categories":[],"categories_nodes":[],"categories_segments":[],"categories_sizes":[],"default_left":[0,0,0,0,0,0,0,0,0,0,0,0,0,0,0,0,0,0,0,0,0,0,0,0,0,0,0,0,0,0,0,0,0,0,0,0,0,0,0,0,0,0,0,0,0,0,0,0,0,0,0,0,0,0,0,0,0,0,0,0,0,0,0,0,0,0,0,0,0,0,0,0,0,0,0,0,0,0,0,0,0],"id":4,"left_children":[1,3,-1,5,7,9,11,13,15,17,19,21,23,25,27,29,31,-1,33,35,37,39,41,43,45,47,49,51,-1,-1,53,55,-1,57,59,61,63,-1,65,67,69,-1,-1,-1,71,73,-1,-1,-1,75,77,-1,-1,-1,79,-1,-1,-1,-1,-1,-1,-1,-1,-1,-1,-1,-1,-1,-1,-1,-1,-1,-1,-1,-1,-1,-1,-1,-1,-1,-1],"loss_changes":[1.6808855E4,3.3988506E3,0E0,6.669656E2,4.228943E2,1.0133667E2,1.8015538E2,7.418097E1,8.1487305E1,1.0904541E1,6.3623245E1,8.3411514E1,3.7074078E1,5.3629456E1,6.1535616E0,4.5993896E1,4.881131E1,0E0,8.873901E0,5.7735825E1,6.992584E0,8.341009E1,2.1503418E1,5.6830406E0,6.3528214E1,2.3641243E0,6.3050568E1,7.7456903E-1,0E0,0E0,5.8364624E1,6.3097177E0,0E0,1.1402588E0,1.0104065E1,2.4359127E1,1.039106E1,0E0,1.7160202E1,9.454346E0,2.319763E1,0E0,0E0,0E0,1.3891182E0,2.3388847E1,0E0,0E0,0E0,3.4346592E1,4.2408417E1,0E0,0E0,0E0,7.817737E1,0E0,0E0,0E0,0E0,0E0,0E0,0E0,0E0,0E0,0E0,0E0,0E0,0E0,0E0,0E0,0E0,0E0,0E0,0E0,0E0,0E0,0E0,0E0,0E0,0E0,0E0],"parents":[2147483647,0,0,1,1,3,3,4,4,5,5,6,6,7,7,8,8,9,9,10,10,11,11,12,12,13,13,14,14,15,15,16,16,18,18,19,19,20,20,21,21,22,22,23,23,24,24,25,25,26,26,27,27,30,30,31,31,33,33,34,34,35,35,36,36,38,38,39,39,40,40,44,44,45,45,49,49,50,50,54,54],"right_children":[2,4,-1,6,8,10,12,14,16,18,20,22,24,26,28,30,32,-1,34,36,38,40,42,44,46,48,50,52,-1,-1,54,56,-1,58,60,62,64,-1,66,68,70,-1,-1,-1,72,74,-1,-1,-1,76,78,-1,-1,-1,80,-1,-1,-1,-1,-1,-1,-1,-1,-1,-1,-1,-1,-1,-1,-1,-1,-1,-1,-1,-1,-1,-1,-1,-1,-1,-1],"split_conditions":[5.5941558E-3,9.5821E-1,1.3151881E-1,8.7677E-1,9.8143E-1,7.6281E-1,9.5956117E-1,9.4833785E-1,9.447824E-1,1.0184565E0,9.909175E-1,4.9472474E-3,1.0013932E0,3.7450946E-3,9.7355E-1,9.470875E-1,9.9236536E-1,-2.7795902E-2,6.2592E-1,2E0,1.0013932E0,2E0,2.4545866E-3,4.9472474E-3,4.9472474E-3,9.6637E-1,1.1806662E0,9.6884E-1,1.0445588E-2,1.2015545E-1,9.9167305E-1,2.4545866E-3,7.767469E-2,2.4906E-1,7.968461E-1,1.0013932E0,1.1806662E0,-2.6516946E-2,4.9472474E-3,2.4995898E-1,2.4995898E-1,3.957678E-2,1.0944049E-1,-2.3762878E-2,9.2574E-1,2E0,5.9080396E-2,-1.2857231E-2,4.920506E-3,2.4545866E-3,2E0,-1.6873205E-2,-2.6847094E-3,1.2509178E-1,9.9747E-1,-0E0,2.9668016E-2,-2.7775986E-2,-2.4901345E-2,-1.5129951E-2,-2.3874244E-2,-8.415025E-3,2.5513297E-2,-2.0730915E-2,-6.44621E-3,-1.9771278E-2,5.984712E-3,2.1079266E-2,6.053414E-2,-1.454477E-2,1.5840841E-2,-1.1982623E-2,-0E0,1.31730735E-2,-6.4096795E-3,-1.4544331E-2,3.5393953E-2,8.952605E-2,4.509806E-2,5.0525647E-2,1.0848083E-1],"split_indices":[15,10,0,10,10,10,12,14,14,6,12,5,8,2,10,12,10,0,10,3,8,3,4,5,5,10,7,10,0,0,4,4,0,10,12,8,7,0,5,7,7,0,0,0,10,3,0,0,0,4,3,0,0,0,10,0,0,0,0,0,0,0,0,0,0,0,0,0,0,0,0,0,0,0,0,0,0,0,0,0,0],"split_type":[0,0,0,0,0,0,0,0,0,0,0,0,0,0,0,0,0,0,0,0,0,0,0,0,0,0,0,0,0,0,0,0,0,0,0,0,0,0,0,0,0,0,0,0,0,0,0,0,0,0,0,0,0,0,0,0,0,0,0,0,0,0,0,0,0,0,0,0,0,0,0,0,0,0,0,0,0,0,0,0,0],"sum_hessian":[5.5550996E3,4.9859043E3,5.691956E2,4.6255103E3,3.603937E2,4.1509365E3,4.7457416E2,1.7938443E2,1.8100926E2,3.5021199E3,6.488164E2,1.6431395E2,3.102602E2,1.49212E2,3.0172413E1,1.4512067E2,3.588861E1,1.6871703E3,1.8149497E3,2.1446097E2,4.343554E2,1.4721785E2,1.7096106E1,7.8108055E1,2.3215215E2,1.6009272E1,1.3320274E2,1.9702152E1,1.0470261E1,4.8333E1,9.678766E1,1.7086824E1,1.8801785E1,1.3382655E3,4.7668414E2,6.60507E1,1.4841026E2,1.1753826E2,3.1681717E2,3.958827E1,1.0762958E2,8.098262E0,8.997844E0,5.395201E1,2.4156044E1,2.2139395E2,1.0758187E1,8.419551E0,7.5897202E0,3.414857E1,9.905417E1,1.1931349E1,7.7708044E0,2.0164425E1,7.662324E1,8.2661915E0,8.820633E0,4.0389532E2,9.343702E2,1.4723831E2,3.2944583E2,1.7785267E1,4.826543E1,5.9698086E1,8.871218E1,3.0035867E2,1.6458473E1,7.933872E0,3.1654394E1,1.8715431E1,8.891415E1,1.438985E1,9.766194E0,5.081387E1,1.705801E2,1.476958E1,1.937899E1,1.9946592E1,7.9107574E1,5.1261467E1,2.536177E1],"tree_param":{"num_deleted":"0","num_feature":"17","num_nodes":"81","size_leaf_vector":"1"}},{"base_weights":[-1.1597952E-2,-5.967292E-1,1.18475355E-1,-8.703733E-1,-2.2827977E-1,-2.6734112E-2,-7.658934E-1,-9.177969E-1,1.9108035E-1,4.842724E0,-9.13809E-1,-7.769464E-1,-2.7914505E-2,1.4411967E-1,-1.844869E-1,1.4006974E-1,3.1634368E-2,-1.0172197E0,-6.941711E-1,-2.4839865E-2,-5.666589E-1,-9.4820064E-1,2.876792E-1,-2.771159E-2,-8.942532E-1,4.7904205E0,-8.950928E-1,3.9286874E-2,-6.641156E-1,-7.590082E-1,-2.5990075E-2,1.6119799E-1,-4.0558152E-2,8.979434E-2,-2.7387485E-2,6.431062E-2,1.5032187E-1,-2.774372E-2,-2.0615807E-2,-2.197699E-2,-9.076096E-3,-1.3495547E-2,-2.5003113E-2,-2.6516778E-2,1.3230463E-2],"categories":[],"categories_nodes":[],"categories_segments":[],"categories_sizes":[],"default_left":[0,0,0,0,0,0,0,0,0,0,0,0,0,0,0,0,0,0,0,0,0,0,0,0,0,0,0,0,0,0,0,0,0,0,0,0,0,0,0,0,0,0,0,0,0],"id":5,"left_children":[1,3,-1,5,7,-1,9,11,13,15,17,19,-1,-1,21,-1,-1,23,25,-1,27,29,31,-1,33,35,37,-1,39,41,-1,-1,43,-1,-1,-1,-1,-1,-1,-1,-1,-1,-1,-1,-1],"loss_changes":[1.4974689E4,4.9314673E2,0E0,4.8931396E1,6.052825E2,0E0,1.4631649E3,1.7065308E1,2.660244E3,9.08374E1,3.7104614E1,1.6313202E1,0E0,0E0,4.3971213E2,0E0,0E0,6.942627E0,6.136057E2,0E0,4.4630623E1,3.8819885E0,1.4883428E3,0E0,3.199301E2,2.7079803E1,6.907715E0,0E0,1.1312248E1,4.9238815E0,0E0,0E0,3.9706204E2,0E0,0E0,0E0,0E0,0E0,0E0,0E0,0E0,0E0,0E0,0E0,0E0],"parents":[2147483647,0,0,1,1,3,3,4,4,6,6,7,7,8,8,9,9,10,10,11,11,14,14,17,17,18,18,20,20,21,21,22,22,24,24,25,25,26,26,28,28,29,29,32,32],"right_children":[2,4,-1,6,8,-1,10,12,14,16,18,20,-1,-1,22,-1,-1,24,26,-1,28,30,32,-1,34,36,38,-1,40,42,-1,-1,44,-1,-1,-1,-1,-1,-1,-1,-1,-1,-1,-1,-1],"split_conditions":[5.5941558E-3,7.513935E0,1.18475355E-1,2.1641145E0,2.1641145E0,-2.6734112E-2,4E0,1.3336395E-3,3.9610276E0,9.616405E-1,6.0691924E0,3.5298714E-1,-2.7914505E-2,1.4411967E-1,4.0349817E0,1.4006974E-1,3.1634368E-2,4.0349817E0,7.9652576E0,-2.4839865E-2,5.469514E-1,8.1E0,5.9616404E0,-2.771159E-2,5.9616404E0,6.5201764E0,8.407405E0,3.9286874E-2,7.200421E-1,6.678331E-1,-2.5990075E-2,1.6119799E-1,6.0691924E0,8.979434E-2,-2.7387485E-2,6.431062E-2,1.5032187E-1,-2.774372E-2,-2.0615807E-2,-2.197699E-2,-9.076096E-3,-1.3495547E-2,-2.5003113E-2,-2.6516778E-2,1.3230463E-2],"split_indices":[15,0,0,16,16,0,16,12,16,12,16,13,0,0,16,0,0,16,16,0,13,0,16,0,16,0,16,0,13,13,0,0,16,0,0,0,0,0,0,0,0,0,0,0,0],"split_type":[0,0,0,0,0,0,0,0,0,0,0,0,0,0,0,0,0,0,0,0,0,0,0,0,0,0,0,0,0,0,0,0,0,0,0,0,0,0,0,0,0,0,0,0,0],"sum_hessian":[5.5164478E3,4.899439E3,6.170088E2,2.8095518E3,2.0898875E3,1.049476E3,1.7600759E3,7.9048193E2,1.2994055E3,4.423902E1,1.7158369E3,4.4030154E2,3.5018036E2,8.310738E1,1.2162981E3,3.705975E1,7.1792746E0,1.1618884E3,5.5394836E2,2.2587901E2,2.1442253E2,4.648111E2,7.51487E2,7.512762E2,4.106123E2,1.8596998E1,5.353514E2,8.505465E0,2.0591705E2,1.272664E2,3.3754468E2,3.8032333E1,7.1345465E2,1.48039665E1,3.9580832E2,7.318818E0,1.127818E1,1.6692276E2,3.6842865E2,1.2409332E2,8.182374E1,6.481574E1,6.245066E1,2.5622525E2,4.5722943E2],"tree_param":{"num_deleted":"0","num_feature":"17","num_nodes":"45","size_leaf_vector":"1"}},{"base_weights":[-3.3693057E-3,-7.844006E-1,3.4727426E0,-8.392351E-1,1.0586163E-1,2.3429844E0,1.0807001E-1,-9.7135615E-1,3.7616435E-1,1.9869392E-1,2.7359083E0,-1.0354824E0,-6.750126E-1,1.23198E0,-9.1146745E-2,1.009384E0,-2.6486987E-2,1.3555224E-1,2.140183E0,-2.7931498E-2,-9.9487025E-1,5.179712E-1,-9.0568954E-1,-3.6060798E-1,3.2940075E0,-5.822608E-1,6.0996515E-1,-2.634081E-1,2.0164287E0,-2.9699883E-1,2.6113098E0,1.4341047E0,-1.0359372E0,-4.7587338E-1,1.5629512E0,-9.546621E-1,-6.270382E-1,-5.768817E-1,3.4135252E-2,1.6297662E-1,1.0714587E0,5.010139E-1,-7.136678E-1,1.6119371E-1,5.090484E-2,-1.6265811E-2,2.6606822E-3,3.4142411E-3,7.3028125E-2,-1.2213941E-2,-8.628975E-2,1.402515E-1,2.0868793E0,3.7763615E-3,1.1138416E-1,-2.7672319E-2,-2.5260013E-2,4.408508E-3,-2.2860069E-2,1.4985215E-2,7.8858405E-2,-2.513269E-2,-1.959449E-2,-2.428185E-2,2.2646629E-3,-9.387416E-3,-2.116394E-2,8.583604E-2,1.145617E-2,4.064625E-2,-2.2726236E-2,-1.3587794E-2,-2.4888536E-2,-1.1058503E-2,2.8015442E-2,3.7212202E-3,-7.4358727E-3,-1.4365934E-2,7.2762005E-2],"categories":[],"categories_nodes":[],"categories_segments":[],"categories_sizes":[],"default_left":[0,0,0,0,0,0,0,0,0,0,0,0,0,0,0,0,0,0,0,0,0,0,0,0,0,0,0,0,0,0,0,0,0,0,0,0,0,0,0,0,0,0,0,0,0,0,0,0,0,0,0,0,0,0,0,0,0,0,0,0,0,0,0,0,0,0,0,0,0,0,0,0,0,0,0,0,0,0,0],"id":6,"left_children":[1,3,5,7,-1,9,-1,11,13,15,17,19,21,23,25,27,-1,-1,29,-1,31,33,35,37,39,41,43,45,47,49,51,53,55,57,59,61,63,65,-1,-1,67,69,71,-1,73,-1,-1,-1,-1,-1,75,-1,77,-1,-1,-1,-1,-1,-1,-1,-1,-1,-1,-1,-1,-1,-1,-1,-1,-1,-1,-1,-1,-1,-1,-1,-1,-1,-1],"loss_changes":[1.4928365E4,1.2126038E3,8.370244E2,7.1407935E2,0E0,3.3823218E2,0E0,7.426831E1,1.7516937E2,6.512225E1,5.0322778E2,4.8430176E0,1.9828915E2,5.105749E2,9.7590065E1,5.2371403E1,0E0,0E0,3.2267395E2,0E0,1.9245117E2,1.225246E2,6.5293884E0,3.2534714E1,4.491811E2,2.4318443E1,3.6501276E2,2.8959544E0,3.2962135E1,1.3231964E0,3.3459924E2,1.1650267E2,1.6594238E0,1.6908073E1,8.071474E1,6.1865234E-1,2.2533836E1,3.0347443E0,0E0,0E0,5.370302E1,2.9367247E1,5.5449524E0,0E0,5.4855637E1,0E0,0E0,0E0,0E0,0E0,1.283423E0,0E0,4.024604E2,0E0,0E0,0E0,0E0,0E0,0E0,0E0,0E0,0E0,0E0,0E0,0E0,0E0,0E0,0E0,0E0,0E0,0E0,0E0,0E0,0E0,0E0,0E0,0E0,0E0,0E0],"parents":[2147483647,0,0,1,1,2,2,3,3,5,5,7,7,8,8,9,9,10,10,11,11,12,12,13,13,14,14,15,15,18,18,20,20,21,21,22,22,23,23,24,24,25,25,26,26,27,27,28,28,29,29,30,30,31,31,32,32,33,33,34,34,35,35,36,36,37,37,40,40,41,41,42,42,44,44,50,50,52,52],"right_children":[2,4,6,8,-1,10,-1,12,14,16,18,20,22,24,26,28,-1,-1,30,-1,32,34,36,38,40,42,44,46,48,50,52,54,56,58,60,62,64,66,-1,-1,68,70,72,-1,74,-1,-1,-1,-1,-1,76,-1,78,-1,-1,-1,-1,-1,-1,-1,-1,-1,-1,-1,-1,-1,-1,-1,-1,-1,-1,-1,-1,-1,-1,-1,-1,-1,-1],"split_conditions":[2.2979175E-1,5.5941558E-3,5.5941558E-3,4.104E-2,1.0586163E-1,2.1641145E0,1.0807001E-1,8.91E-3,9.530728E-1,1.9587219E-1,3.9610276E0,2.1641145E0,3E0,2.1641145E0,6.0691924E0,3.5298714E-1,-2.6486987E-2,1.3555224E-1,4.0349817E0,-2.7931498E-2,4E0,2.4545866E-3,4.9472474E-3,4.9472474E-3,3.9610276E0,1.3017267E0,8E0,3.667643E-1,3.3418E-1,4.980314E-1,6E0,3.71E-3,1.0184565E0,6.7432594E-1,4.500771E-1,3.027E-2,1.0013932E0,9.933E-2,3.4135252E-2,1.6297662E-1,3E0,5.021164E0,5.557066E0,1.6119371E-1,1.2134E-1,-1.6265811E-2,2.6606822E-3,3.4142411E-3,7.3028125E-2,-1.2213941E-2,7.2266E-1,1.402515E-1,6.0691924E0,3.7763615E-3,1.1138416E-1,-2.7672319E-2,-2.5260013E-2,4.408508E-3,-2.2860069E-2,1.4985215E-2,7.8858405E-2,-2.513269E-2,-1.959449E-2,-2.428185E-2,2.2646629E-3,-9.387416E-3,-2.116394E-2,8.583604E-2,1.145617E-2,4.064625E-2,-2.2726236E-2,-1.3587794E-2,-2.4888536E-2,-1.1058503E-2,2.8015442E-2,3.7212202E-3,-7.4358727E-3,-1.4365934E-2,7.2762005E-2],"split_indices":[9,15,15,9,0,16,0,9,12,12,16,16,1,16,16,13,0,0,16,0,16,4,5,5,16,1,16,9,9,9,16,9,6,13,13,9,8,9,0,0,1,16,16,0,9,0,0,0,0,0,9,0,16,0,0,0,0,0,0,0,0,0,0,0,0,0,0,0,0,0,0,0,0,0,0,0,0,0,0],"split_type":[0,0,0,0,0,0,0,0,0,0,0,0,0,0,0,0,0,0,0,0,0,0,0,0,0,0,0,0,0,0,0,0,0,0,0,0,0,0,0,0,0,0,0,0,0,0,0,0,0,0,0,0,0,0,0,0,0,0,0,0,0,0,0,0,0,0,0,0,0,0,0,0,0,0,0,0,0,0,0],"sum_hessian":[5.4970923E3,4.4894067E3,1.0076855E3,4.440917E3,4.8489616E1,4.0337708E2,6.043084E2,4.0061826E3,4.3473438E2,6.2979652E1,3.4039743E2,3.289464E3,7.1671857E2,1.5342734E2,2.8130704E2,3.843952E1,2.454013E1,6.2505535E1,2.778919E2,1.3744612E3,1.9150029E3,1.1544825E2,6.012703E2,8.688312E1,6.654422E1,1.660919E2,1.1521514E2,1.7036411E1,2.1403112E1,4.485215E1,2.3303975E2,3.0967422E1,1.8840355E3,5.914418E1,5.630407E1,5.0716165E2,9.4108665E1,7.801715E1,8.865967E0,2.6980627E1,3.9563595E1,1.7096197E1,1.4899571E2,9.22829E0,1.0598685E2,8.978292E0,8.058119E0,7.2024274E0,1.4200685E1,2.1761715E1,2.3090433E1,3.4293007E1,1.9874673E2,2.2422619E1,8.544805E0,9.7114514E2,9.128904E2,2.2773489E1,3.637069E1,3.5399906E1,2.0904165E1,4.3731564E2,6.9845985E1,6.535117E1,2.8757492E1,4.5219063E1,3.2798084E1,7.268512E0,3.2295082E1,9.774671E0,7.321526E0,9.061123E1,5.838448E1,7.2447716E1,3.353913E1,9.435247E0,1.3655186E1,4.394266E1,1.5480408E2],"tree_param":{"num_deleted":"0","num_feature":"17","num_nodes":"79","size_leaf_vector":"1"}},{"base_weights":[-1.9240215E-3,-8.390566E-1,3.0319865E0,-8.7402225E-1,9.639108E-2,1.9120632E0,9.964444E-2,-9.834168E-1,1.0678897E-1,1.1341639E0,2.6897855E0,-1.037299E0,-7.007721E-1,9.4677496E-1,-3.6054724E-1,1.462355E0,-7.136173E-1,2.987454E0,1.3262488E0,-2.768302E-2,-9.9600965E-1,-2.5073183E-1,-8.536034E-1,7.556053E-1,2.2167993E0,-6.5642303E-1,-1.6100173E-1,-1.8974191E-1,1.6710722E0,2.1614782E-3,-2.3758182E-2,2.8531945E0,1.2962908E-1,3.794131E-1,6.8983324E-2,-2.6349192E-2,-9.071426E-1,4.8616916E-1,-7.242296E-1,-7.0632863E-1,-9.4293857E-1,1.5851316E0,3.6136743E-1,3.0181114E-2,7.58076E-2,-4.002274E-1,-7.33477E-1,-2.8410207E-2,-2.094096E-2,7.390573E-3,-1.1551206E-2,2.54063E0,1.3846569E0,8.9152135E-2,2.4966817E0,-2.0589831E-4,6.495304E-1,-1.771642E-2,-2.5578888E-2,1.7903731E-3,3.6787566E-2,-2.2479221E-2,-1.3104916E-2,-2.5844546E-2,-1.1630749E-2,-2.4691863E-2,-1.2354071E-2,1.7875863E-2,4.4751693E-2,1.9834727E-2,-4.1500055E-3,-2.120723E-2,-3.114772E-3,-1.3156633E-2,-2.0844404E-2,1.4892442E-2,-4.1094995E-3,3.2288653E-3,7.884312E-2,2.8106539E-2,8.057728E-2,1.1446796E-2,6.999843E-2,6.9382456E-3,2.504074E-2],"categories":[],"categories_nodes":[],"categories_segments":[],"categories_sizes":[],"default_left":[0,0,0,0,0,0,0,0,0,0,0,0,0,0,0,0,0,0,0,0,0,0,0,0,0,0,0,0,0,0,0,0,0,0,0,0,0,0,0,0,0,0,0,0,0,0,0,0,0,0,0,0,0,0,0,0,0,0,0,0,0,0,0,0,0,0,0,0,0,0,0,0,0,0,0,0,0,0,0,0,0,0,0,0,0],"id":7,"left_children":[1,3,5,7,-1,9,-1,11,13,15,17,19,21,23,25,27,29,31,33,-1,35,37,39,41,43,45,47,49,51,-1,-1,53,-1,55,-1,-1,57,59,61,63,65,67,69,-1,-1,71,73,75,-1,-1,-1,77,79,-1,81,-1,83,-1,-1,-1,-1,-1,-1,-1,-1,-1,-1,-1,-1,-1,-1,-1,-1,-1,-1,-1,-1,-1,-1,-1,-1,-1,-1,-1,-1],"loss_changes":[1.3925071E4,6.9333813E2,1.1291592E3,4.584519E2,0E0,3.0709058E2,0E0,5.6534668E1,1.6894492E2,1.5978949E2,9.738147E1,3.28833E0,4.1676605E1,3.36167E1,1.5612965E1,7.792514E1,7.4384995E0,3.781958E1,5.9601807E1,0E0,2.6333008E0,5.6281494E1,4.261078E0,4.253689E1,8.295937E0,1.0908661E0,1.3983957E1,3.4374294E0,4.2872192E1,0E0,0E0,3.154895E1,0E0,3.5880508E0,0E0,0E0,7.3945312E0,2.365422E1,1.8034554E0,1.23787E1,1.3009949E0,3.2583466E0,2.0881275E1,0E0,0E0,2.7923388E0,9.965515E-2,1.1192484E1,0E0,0E0,0E0,5.8713776E1,7.018796E1,0E0,6.0696594E1,0E0,1.2233515E0,0E0,0E0,0E0,0E0,0E0,0E0,0E0,0E0,0E0,0E0,0E0,0E0,0E0,0E0,0E0,0E0,0E0,0E0,0E0,0E0,0E0,0E0,0E0,0E0,0E0,0E0,0E0,0E0],"parents":[2147483647,0,0,1,1,2,2,3,3,5,5,7,7,8,8,9,9,10,10,11,11,12,12,13,13,14,14,15,15,16,16,17,17,18,18,20,20,21,21,22,22,23,23,24,24,25,25,26,26,27,27,28,28,31,31,33,33,36,36,37,37,38,38,39,39,40,40,41,41,42,42,45,45,46,46,47,47,51,51,52,52,54,54,56,56],"right_children":[2,4,6,8,-1,10,-1,12,14,16,18,20,22,24,26,28,30,32,34,-1,36,38,40,42,44,46,48,50,52,-1,-1,54,-1,56,-1,-1,58,60,62,64,66,68,70,-1,-1,72,74,76,-1,-1,-1,78,80,-1,82,-1,84,-1,-1,-1,-1,-1,-1,-1,-1,-1,-1,-1,-1,-1,-1,-1,-1,-1,-1,-1,-1,-1,-1,-1,-1,-1,-1,-1,-1],"split_conditions":[1.4401E-1,5.5941558E-3,5.5941558E-3,3.027E-2,9.639108E-2,4.5135E-1,9.964444E-2,8.7E-3,9.530728E-1,9.872346E-1,9.976962E-1,1.0184565E0,2E0,4.9472474E-3,5.096E-2,3.7450946E-3,1.8131051E0,1.3336395E-3,8.671851E-1,-2.768302E-2,4.1E-3,8.5642254E-1,9.728566E-1,2E0,2.4545866E-3,9.560954E-1,7.310957E-1,8.3832765E-1,2E0,2.1614782E-3,-2.3758182E-2,9.6957207E-1,1.2962908E-1,2.4545866E-3,6.8983324E-2,-2.6349192E-2,2E0,1.781E-2,1.531E-2,1.1806662E0,4.9472474E-3,2.4995898E-1,9.642516E-1,3.0181114E-2,7.58076E-2,1.0184565E0,1.8131051E0,1E0,-2.094096E-2,7.390573E-3,-1.1551206E-2,1.1806662E0,4.9472474E-3,8.9152135E-2,1.0184565E0,-2.0589831E-4,7.5215024E-1,-1.771642E-2,-2.5578888E-2,1.7903731E-3,3.6787566E-2,-2.2479221E-2,-1.3104916E-2,-2.5844546E-2,-1.1630749E-2,-2.4691863E-2,-1.2354071E-2,1.7875863E-2,4.4751693E-2,1.9834727E-2,-4.1500055E-3,-2.120723E-2,-3.114772E-3,-1.3156633E-2,-2.0844404E-2,1.4892442E-2,-4.1094995E-3,3.2288653E-3,7.884312E-2,2.8106539E-2,8.057728E-2,1.1446796E-2,6.999843E-2,6.9382456E-3,2.504074E-2],"split_indices":[9,15,15,9,0,9,0,9,12,14,14,6,3,5,9,2,3,14,9,0,9,12,4,3,4,4,14,12,3,0,0,12,0,4,0,0,3,9,9,7,5,7,4,0,0,6,3,6,0,0,0,7,5,0,6,0,9,0,0,0,0,0,0,0,0,0,0,0,0,0,0,0,0,0,0,0,0,0,0,0,0,0,0,0,0],"split_type":[0,0,0,0,0,0,0,0,0,0,0,0,0,0,0,0,0,0,0,0,0,0,0,0,0,0,0,0,0,0,0,0,0,0,0,0,0,0,0,0,0,0,0,0,0,0,0,0,0,0,0,0,0,0,0,0,0,0,0,0,0,0,0,0,0,0,0,0,0,0,0,0,0,0,0,0,0,0,0,0,0,0,0,0,0],"sum_hessian":[5.4812104E3,4.2966484E3,1.1845621E3,4.26526E3,3.1388426E1,5.161137E2,6.684484E2,3.8378774E3,4.273824E2,2.5976736E2,2.5634634E2,3.2190151E3,6.1886237E2,1.528954E2,2.7448697E2,2.2108246E2,3.8684895E1,2.0896796E2,4.737838E1,1.541802E3,1.6772131E3,1.587022E2,4.601602E2,1.3482741E2,1.8067987E1,1.08231544E2,1.6625543E2,2.4451431E1,1.9663103E2,7.666016E0,3.1018877E1,1.98951E2,1.0016948E1,2.9089695E1,1.8288687E1,1.2096934E3,4.6751974E2,6.1522854E1,9.7179344E1,1.8013945E2,2.8002072E2,4.185249E1,9.2974915E1,9.065663E0,9.002325E0,2.8548872E1,7.968268E1,1.4009802E2,2.6157408E1,7.70152E0,1.6749912E1,4.6061493E1,1.5056953E2,6.795614E1,1.3099486E2,1.1364801E1,1.7724894E1,1.4459627E2,3.2292346E2,4.4068523E1,1.7454332E1,5.264374E1,4.45356E1,7.917105E1,1.009684E2,2.6513654E2,1.4884206E1,7.9884562E0,3.3864033E1,5.2381004E1,4.0593914E1,9.485692E0,1.906318E1,2.5701038E1,5.3981636E1,2.3392443E1,1.1670558E2,8.862472E0,3.719902E1,1.3129109E2,1.9278439E1,1.4179826E1,1.1681504E2,1.0078083E1,7.6468105E0],"tree_param":{"num_deleted":"0","num_feature":"17","num_nodes":"85","size_leaf_vector":"1"}},{"base_weights":[-4.0527587E-3,-5.583438E-1,9.265781E-2,-9.7050536E-1,-3.2146204E-1,-8.8400584E-1,-2.7868642E-2,4.2644615E0,-5.7228225E-1,-9.427566E-1,-4.4576523E-1,1.15731835E-1,3.2524383E0,-1.0130433E0,-2.7143177E-1,-2.6650462E-2,-8.815098E-1,-7.4540876E-2,-7.1030843E-1,2.0855283E-2,9.945243E-2,-2.7624484E-2,-9.5686954E-1,4.633631E0,-4.6422693E-1,-9.746225E-1,-7.303874E-1,-2.1644816E-2,3.084052E-1,-2.2454983E-2,-3.9502224E-1,-9.8399913E-1,-5.280027E-1,5.6293722E-2,1.2667033E-1,-2.6671058E-2,-1.0262492E-1,-1.9028729E-2,-2.6627231E-2,-2.0699402E-2,1.0379798E-2,-2.2211447E-2,1.6899755E-2,-0E0,-1.3737441E-2,-2.2221573E-2,-2.625466E-2,-1.937757E-2,-0E0,1.2140957E-1,-1.0748782E-2],"categories":[],"categories_nodes":[],"categories_segments":[],"categories_sizes":[],"default_left":[0,0,0,0,0,0,0,0,0,0,0,0,0,0,0,0,0,0,0,0,0,0,0,0,0,0,0,0,0,0,0,0,0,0,0,0,0,0,0,0,0,0,0,0,0,0,0,0,0,0,0],"id":8,"left_children":[1,3,-1,5,7,9,-1,11,13,15,17,-1,19,21,23,-1,25,27,29,-1,-1,-1,31,33,35,37,39,-1,41,-1,43,45,47,-1,-1,-1,49,-1,-1,-1,-1,-1,-1,-1,-1,-1,-1,-1,-1,-1,-1],"loss_changes":[1.0949316E4,4.6065967E2,0E0,1.5239502E1,3.4584724E3,2.4467285E1,0E0,1.9374512E1,3.7700586E2,3.039856E0,1.1402737E1,0E0,4.84722E1,1.8120117E0,1.6045614E3,0E0,5.9064636E0,1.6278328E1,2.4649773E0,0E0,0E0,0E0,5.8637695E0,3.2543945E1,3.4027057E2,3.0788574E0,1.994548E1,0E0,1.5195439E1,0E0,1.6008301E0,6.578369E-1,4.981352E0,0E0,0E0,0E0,1.5456711E3,0E0,0E0,0E0,0E0,0E0,0E0,0E0,0E0,0E0,0E0,0E0,0E0,0E0,0E0],"parents":[2147483647,0,0,1,1,3,3,4,4,5,5,7,7,8,8,9,9,10,10,12,12,13,13,14,14,16,16,17,17,18,18,22,22,23,23,24,24,25,25,26,26,28,28,30,30,31,31,32,32,36,36],"right_children":[2,4,-1,6,8,10,-1,12,14,16,18,-1,20,22,24,-1,26,28,30,-1,-1,-1,32,34,36,38,40,-1,42,-1,44,46,48,-1,-1,-1,50,-1,-1,-1,-1,-1,-1,-1,-1,-1,-1,-1,-1,-1,-1],"split_conditions":[5.5941558E-3,2.1641145E0,9.265781E-2,1.9587219E-1,4E0,7.200421E-1,-2.7868642E-2,9.8500973E-1,4.0349817E0,1.0184565E0,7.786026E-1,1.15731835E-1,1.1806662E0,1.0184565E0,6E0,-2.6650462E-2,3.5298714E-1,2.4545866E-3,8.0146575E-1,2.0855283E-2,9.945243E-2,-2.7624484E-2,4.9472474E-3,1.0184565E0,6.0691924E0,9.642516E-1,4.9472474E-3,-2.1644816E-2,1.1806662E0,-2.2454983E-2,8.5E-1,1.3017267E0,6.5124375E-1,5.6293722E-2,1.2667033E-1,-2.6671058E-2,8E0,-1.9028729E-2,-2.6627231E-2,-2.0699402E-2,1.0379798E-2,-2.2211447E-2,1.6899755E-2,-0E0,-1.3737441E-2,-2.2221573E-2,-2.625466E-2,-1.937757E-2,-0E0,1.2140957E-1,-1.0748782E-2],"split_indices":[15,16,0,12,16,13,0,12,16,6,13,0,7,6,16,0,13,4,13,0,0,0,5,6,16,4,5,0,7,0,13,1,13,0,0,0,16,0,0,0,0,0,0,0,0,0,0,0,0,0,0],"split_type":[0,0,0,0,0,0,0,0,0,0,0,0,0,0,0,0,0,0,0,0,0,0,0,0,0,0,0,0,0,0,0,0,0,0,0,0,0,0,0,0,0,0,0,0,0,0,0,0,0,0,0],"sum_hessian":[5.451967E3,4.7293896E3,7.225772E2,1.7238575E3,3.0055322E3,1.0024984E3,7.2135913E2,1.5483485E2,2.8506973E3,8.8156903E2,1.20929405E2,1.2018773E2,3.464712E1,1.1545243E3,1.6961731E3,3.2834506E2,5.5322394E2,5.193354E1,6.8995865E1,7.846134E0,2.6800987E1,5.1758057E2,6.369437E2,6.3086483E1,1.6330865E3,3.359897E2,2.1723428E2,1.7386568E1,3.4546974E1,4.2519295E1,2.6476568E1,5.962912E2,4.0652493E1,8.403435E0,5.468305E1,6.2746216E2,1.00562445E3,7.898673E1,2.5700296E2,2.0411688E2,1.3117399E1,7.1560326E0,2.7390942E1,7.047756E0,1.9428812E1,1.6668875E2,4.2960245E2,2.7942753E1,1.2709741E1,6.0749046E1,9.4487537E2],"tree_param":{"num_deleted":"0","num_feature":"17","num_nodes":"51","size_leaf_vector":"1"}},{"base_weights":[-1.7397633E-2,-8.413319E-1,2.6863904E0,-9.633304E-1,2.6585117E-1,1.4417431E0,3.0743785E0,-1.0258278E0,-6.2995535E-1,1.20331265E-1,3.867362E-2,1.16779506E-1,1.0106153E0,1.7411793E0,3.1798897E0,-9.4730055E-1,-1.0591488E0,1.309273E-1,-7.135268E-1,1.489181E0,-3.376559E-1,2.2097387E0,4.6043965E-1,1.9294448E0,6.2315357E-3,2.6411753E0,3.2564282E0,-1.0193361E0,-3.5172114E-1,-2.737991E-2,-9.3877953E-1,3.7421522E-1,-9.4842505E-1,2.7628272E0,6.524911E-2,-8.725255E-1,-8.872478E-2,5.449984E-1,2.6261582E0,2.5688666E-1,2.1014416E0,2.1522987E0,2.3542693E-2,9.602258E-2,2.3554418E0,9.51437E-2,3.2057924E0,-2.7204664E-2,-8.997961E-1,4.5396146E-1,-8.4088016E-1,-2.6987974E-2,-5.779003E-1,1.3389657E0,-4.175536E-1,-9.907757E-1,-6.8832034E-1,2.7378242E-2,8.198228E-2,6.031708E-1,-1.7940398E-2,-6.2112653E-1,-2.5742888E-2,1.3567216E0,-2.725434E-1,-1.0430985E-2,4.2571556E-2,2.9302955E0,1.9580329E-2,2.0124385E-2,1.1677951E0,-0E0,9.502337E-2,3.1752825E-2,2.4214618E0,7.785939E-2,1.9926033E0,2.5850813E0,3.2838311E0,-1.7381106E-2,-2.5763059E-2,-2.4319457E-2,4.5054678E-2,-3.8275095E-3,-2.333044E-2,8.03257E-3,-1.937239E-2,-7.6617586E-4,5.5287037E-2,6.5820133E-3,-2.193937E-2,-1.2082044E-2,-2.557119E-2,-2.3746913E-2,-9.070598E-5,5.06396E-2,-1.1250007E-2,-6.832119E-4,-2.2523971E-2,5.1879063E-2,1.098208E-2,1.2072991E-2,-1.1559165E-2,4.636838E-2,8.734546E-2,-1.9704424E-2,6.6610714E-3,-1.7769873E-4,4.5402404E-2,3.291654E-2,7.11208E-2,5.6552712E-2,1.6108437E-2,6.9588624E-2,4.5810323E-2,7.42015E-2,8.623829E-2],"categories":[],"categories_nodes":[],"categories_segments":[],"categories_sizes":[],"default_left":[0,0,0,0,0,0,0,0,0,0,0,0,0,0,0,0,0,0,0,0,0,0,0,0,0,0,0,0,0,0,0,0,0,0,0,0,0,0,0,0,0,0,0,0,0,0,0,0,0,0,0,0,0,0,0,0,0,0,0,0,0,0,0,0,0,0,0,0,0,0,0,0,0,0,0,0,0,0,0,0,0,0,0,0,0,0,0,0,0,0,0,0,0,0,0,0,0,0,0,0,0,0,0,0,0,0,0,0,0,0,0,0,0,0,0,0,0],"id":9,"left_children":[1,3,5,7,9,11,13,15,17,-1,19,-1,21,23,25,27,29,-1,31,33,35,37,39,41,-1,43,45,47,49,-1,51,53,55,57,59,61,63,65,67,69,71,73,-1,-1,75,-1,77,-1,79,81,83,-1,85,87,89,91,93,-1,-1,95,-1,97,-1,99,101,-1,-1,103,-1,105,107,-1,-1,-1,109,-1,111,113,115,-1,-1,-1,-1,-1,-1,-1,-1,-1,-1,-1,-1,-1,-1,-1,-1,-1,-1,-1,-1,-1,-1,-1,-1,-1,-1,-1,-1,-1,-1,-1,-1,-1,-1,-1,-1,-1,-1],"loss_changes":[1.2095426E4,5.6290967E2,6.046133E2,7.6333496E1,4.1298578E2,3.9979895E2,1.2661035E2,5.848633E0,2.8721454E2,0E0,2.1661798E2,0E0,1.7423001E2,1.881456E1,2.3707031E1,3.9710938E1,2.6220703E-1,0E0,1.5123141E2,1.46311E2,4.1046055E1,5.443167E1,5.98976E1,1.0443161E1,0E0,2.3825378E1,7.1875E-1,2.0546875E0,4.234255E1,0E0,5.9016266E0,8.130178E1,3.4998474E0,2.539328E1,1.68529E1,1.5455704E0,5.709378E1,2.1168282E1,3.2746918E1,3.5162495E1,6.696989E1,7.078247E0,0E0,0E0,1.4298523E1,0E0,2.1330566E1,0E0,3.705124E0,7.586254E1,2.3871918E0,0E0,8.226009E0,5.525054E1,1.7825844E1,1.9354248E-1,1.1429081E1,0E0,0E0,3.714276E1,0E0,5.306938E0,0E0,1.24384575E1,2.5899944E1,0E0,0E0,2.0281189E1,0E0,2.5282133E1,2.5229504E1,0E0,0E0,0E0,8.976791E0,0E0,1.639682E1,7.815552E-1,5.633789E0,0E0,0E0,0E0,0E0,0E0,0E0,0E0,0E0,0E0,0E0,0E0,0E0,0E0,0E0,0E0,0E0,0E0,0E0,0E0,0E0,0E0,0E0,0E0,0E0,0E0,0E0,0E0,0E0,0E0,0E0,0E0,0E0,0E0,0E0,0E0,0E0,0E0,0E0],"parents":[2147483647,0,0,1,1,2,2,3,3,4,4,5,5,6,6,7,7,8,8,10,10,12,12,13,13,14,14,15,15,16,16,18,18,19,19,20,20,21,21,22,22,23,23,25,25,26,26,27,27,28,28,30,30,31,31,32,32,33,33,34,34,35,35,36,36,37,37,38,38,39,39,40,40,41,41,44,44,46,46,48,48,49,49,50,50,52,52,53,53,54,54,55,55,56,56,59,59,61,61,63,63,64,64,67,67,69,69,70,70,74,74,76,76,77,77,78,78],"right_children":[2,4,6,8,10,12,14,16,18,-1,20,-1,22,24,26,28,30,-1,32,34,36,38,40,42,-1,44,46,48,50,-1,52,54,56,58,60,62,64,66,68,70,72,74,-1,-1,76,-1,78,-1,80,82,84,-1,86,88,90,92,94,-1,-1,96,-1,98,-1,100,102,-1,-1,104,-1,106,108,-1,-1,-1,110,-1,112,114,116,-1,-1,-1,-1,-1,-1,-1,-1,-1,-1,-1,-1,-1,-1,-1,-1,-1,-1,-1,-1,-1,-1,-1,-1,-1,-1,-1,-1,-1,-1,-1,-1,-1,-1,-1,-1,-1,-1],"split_conditions":[1.4401E-1,3.366E-2,4.022682E-1,9.42E-3,8.6954E-1,9.4294E-1,2.1641145E0,2E0,7.5917E-1,1.20331265E-1,2E0,1.16779506E-1,2E0,8.853797E-1,6.0045E-1,4.2E-3,8.407405E0,1.309273E-1,3E0,2E0,5.096E-2,2.1641145E0,4.9472474E-3,7.9889995E-1,6.2315357E-3,9.7116E-1,3.9610276E0,1.53E-3,2E0,-2.737991E-2,8.3E0,1.8131051E0,4.9472474E-3,5.561335E0,7.0029914E-1,5.510978E-1,9.0169E-1,2.5204E-1,8E-1,3.3418E-1,6.2E0,3.5298714E-1,2.3542693E-2,9.602258E-2,2E0,9.51437E-2,4.0349817E0,-2.7204664E-2,1.5036356E0,2.1641145E0,6.3253E-1,-2.6987974E-2,5.389E-1,7.374621E0,6.7432594E-1,4.4E0,1.1806662E0,2.7378242E-2,8.198228E-2,9.0601E-1,-1.7940398E-2,3.1755407E0,-2.5742888E-2,6.4313394E-1,1E0,-1.0430985E-2,4.2571556E-2,7.7117515E0,1.9580329E-2,2.1641145E0,3.5298714E-1,-0E0,9.502337E-2,3.1752825E-2,1.1806662E0,7.785939E-2,1.5508859E1,8.9918584E-1,7.513935E0,-1.7381106E-2,-2.5763059E-2,-2.4319457E-2,4.5054678E-2,-3.8275095E-3,-2.333044E-2,8.03257E-3,-1.937239E-2,-7.6617586E-4,5.5287037E-2,6.5820133E-3,-2.193937E-2,-1.2082044E-2,-2.557119E-2,-2.3746913E-2,-9.070598E-5,5.06396E-2,-1.1250007E-2,-6.832119E-4,-2.2523971E-2,5.1879063E-2,1.098208E-2,1.2072991E-2,-1.1559165E-2,4.636838E-2,8.734546E-2,-1.9704424E-2,6.6610714E-3,-1.7769873E-4,4.5402404E-2,3.291654E-2,7.11208E-2,5.6552712E-2,1.6108437E-2,6.9588624E-2,4.5810323E-2,7.42015E-2,8.623829E-2],"split_indices":[9,9,9,9,10,10,16,1,10,0,1,0,3,9,9,9,16,0,1,3,9,16,5,13,0,10,16,9,3,0,0,3,5,0,13,13,10,9,13,9,0,13,0,0,3,0,16,0,3,16,10,0,10,0,13,0,7,0,0,10,0,16,0,13,6,0,0,0,0,16,13,0,0,0,7,0,16,9,0,0,0,0,0,0,0,0,0,0,0,0,0,0,0,0,0,0,0,0,0,0,0,0,0,0,0,0,0,0,0,0,0,0,0,0,0,0,0],"split_type":[0,0,0,0,0,0,0,0,0,0,0,0,0,0,0,0,0,0,0,0,0,0,0,0,0,0,0,0,0,0,0,0,0,0,0,0,0,0,0,0,0,0,0,0,0,0,0,0,0,0,0,0,0,0,0,0,0,0,0,0,0,0,0,0,0,0,0,0,0,0,0,0,0,0,0,0,0,0,0,0,0,0,0,0,0,0,0,0,0,0,0,0,0,0,0,0,0,0,0,0,0,0,0,0,0,0,0,0,0,0,0,0,0,0,0,0,0],"sum_hessian":[5.4278496E3,4.160874E3,1.2669755E3,3.7485654E3,4.1230875E2,3.026949E2,9.6428064E2,3.1532236E3,5.953419E2,1.8930838E1,3.933779E2,3.533298E1,2.673619E2,7.2550606E1,8.9173004E2,9.546914E2,2.1985322E3,7.5032153E0,5.878387E2,8.0749084E1,3.126288E2,8.269536E1,1.8466653E2,6.3782276E1,8.768326E0,1.1673134E2,7.749987E2,8.5000726E2,1.0468417E2,2.0158213E3,1.827109E2,1.0378411E2,4.8405457E2,4.1847397E1,3.8901684E1,9.75918E1,2.1503702E2,1.7359226E1,6.533613E1,1.6574721E2,1.8919333E1,5.0724968E1,1.3057308E1,2.0790112E1,9.594123E1,6.800655E1,7.069921E2,6.146762E2,2.3533102E2,3.9062996E1,6.562118E1,1.3556532E2,4.714559E1,4.682723E1,5.695688E1,4.1149866E2,7.255591E1,9.676407E0,3.217099E1,2.349415E1,1.5407535E1,3.755413E1,6.0037666E1,2.308436E1,1.9195267E2,9.417596E0,7.9416304E0,5.5326588E1,1.0009541E1,1.3299933E2,3.2747875E1,8.714083E0,1.020525E1,1.3483025E1,3.7241943E1,2.985578E1,6.608545E1,8.3981285E1,6.2301086E2,8.100841E1,1.5432262E2,1.8718699E1,2.0344297E1,7.2296443E0,5.8391537E1,7.113121E0,4.003247E1,1.7625477E1,2.9201752E1,2.2038294E1,3.4918583E1,8.340797E0,4.0315787E2,5.2782673E1,1.9773232E1,9.995638E0,1.3498512E1,1.2516555E1,2.5037575E1,1.2260791E1,1.082357E1,3.6143246E1,1.5580942E2,1.856386E1,3.6762726E1,2.9807251E1,1.03192085E2,1.1120907E1,2.1626966E1,1.050483E1,2.6737114E1,5.606116E1,1.0024286E1,6.907585E1,1.4905436E1,1.1939461E2,5.0361627E2],"tree_param":{"num_deleted":"0","num_feature":"17","num_nodes":"117","size_leaf_vector":"1"}},{"base_weights":[-6.146277E-3,-7.64327E-1,2.4478261E0,-8.249059E-1,8.051671E-2,1.4625051E0,8.2108155E-2,-9.4500524E-1,1.1195764E-1,-3.2592702E-1,1.8357232E0,-9.950349E-1,-6.649411E-1,8.7561536E-1,-3.1380016E-1,8.393232E-2,-2.709542E-2,1.0090789E-1,1.3412267E0,-2.7406994E-2,-9.2565125E-1,-3.4227136E-1,-8.270675E-1,-2.4919385E-1,2.23754E0,-6.466801E-1,1.4445174E-1,-4.3910757E-1,1.1205536E0,-5.318508E-1,1.7434202E0,-2.7549876E-2,-8.028656E-1,-7.425356E-1,3.0934617E-1,-2.6670579E-2,-7.3775995E-1,-4.154905E-1,2.6985286E-2,1.2549928E-1,4.2900845E-1,-4.3830928E-1,-2.566821E-2,1.134352E-1,-2.9513642E-1,-5.92176E-1,2.0767276E-3,1.4904353E-2,4.6399225E-2,-1.9653173E-2,2.322604E-2,1.05849035E-1,1.3584661E0,5.6156244E-2,-2.3164805E-2,-7.234476E-3,-2.499839E-2,1.12954736E-1,-8.401885E-3,-2.0352757E-2,2.5835661E-3,3.795364E-3,-1.597242E-2,-1.6700033E-2,2.1132175E-2,-2.6885156E-2,-2.1764212E-3,-1.2800444E-2,3.182863E-2,-4.912044E-3,-1.8317576E-2,-2.1274632E-2,5.2952573E-2],"categories":[],"categories_nodes":[],"categories_segments":[],"categories_sizes":[],"default_left":[0,0,0,0,0,0,0,0,0,0,0,0,0,0,0,0,0,0,0,0,0,0,0,0,0,0,0,0,0,0,0,0,0,0,0,0,0,0,0,0,0,0,0,0,0,0,0,0,0,0,0,0,0,0,0,0,0,0,0,0,0,0,0,0,0,0,0,0,0,0,0,0,0],"id":10,"left_children":[1,3,5,7,-1,9,-1,11,13,15,17,19,21,23,25,27,-1,-1,29,-1,31,33,35,37,39,41,43,45,47,49,51,-1,53,55,57,-1,59,61,-1,-1,63,65,-1,-1,67,69,-1,-1,-1,-1,-1,-1,71,-1,-1,-1,-1,-1,-1,-1,-1,-1,-1,-1,-1,-1,-1,-1,-1,-1,-1,-1,-1],"loss_changes":[1.0050426E4,9.785342E2,9.4490234E2,4.5810327E2,0E0,3.7339722E2,0E0,4.8691895E1,1.509682E2,2.977952E1,4.7095508E2,1.3559814E1,2.7771759E1,2.566952E2,4.5743244E1,3.483463E1,0E0,0E0,2.8459174E2,0E0,2.7364258E1,4.9470226E1,4.9867706E0,1.9931171E1,3.5837695E2,1.1402199E1,2.3964212E2,3.7227802E0,5.3503475E0,2.3327366E1,2.7519153E2,0E0,2.7188934E2,1.1465797E1,1.9125552E2,0E0,1.3152969E1,1.0112852E1,0E0,0E0,2.0544605E1,2.340057E1,0E0,0E0,3.6146145E1,8.99765E-1,0E0,0E0,0E0,0E0,0E0,0E0,4.1960397E2,0E0,0E0,0E0,0E0,0E0,0E0,0E0,0E0,0E0,0E0,0E0,0E0,0E0,0E0,0E0,0E0,0E0,0E0,0E0,0E0],"parents":[2147483647,0,0,1,1,2,2,3,3,5,5,7,7,8,8,9,9,10,10,11,11,12,12,13,13,14,14,15,15,18,18,20,20,21,21,22,22,23,23,24,24,25,25,26,26,27,27,28,28,29,29,30,30,32,32,33,33,34,34,36,36,37,37,40,40,41,41,44,44,45,45,52,52],"right_children":[2,4,6,8,-1,10,-1,12,14,16,18,20,22,24,26,28,-1,-1,30,-1,32,34,36,38,40,42,44,46,48,50,52,-1,54,56,58,-1,60,62,-1,-1,64,66,-1,-1,68,70,-1,-1,-1,-1,-1,-1,72,-1,-1,-1,-1,-1,-1,-1,-1,-1,-1,-1,-1,-1,-1,-1,-1,-1,-1,-1,-1],"split_conditions":[9.4294E-1,5.5941558E-3,5.5941558E-3,8.5846E-1,8.051671E-2,2.1641145E0,8.2108155E-2,7.552E-1,9.5956117E-1,1.9587219E-1,3.9610276E0,1.0184565E0,9.776532E-1,2.1641145E0,6.0691924E0,9.7355E-1,-2.709542E-2,1.0090789E-1,4.0349817E0,-2.7406994E-2,2.1641145E0,2.1641145E0,1.0013932E0,4.9472474E-3,3.71946E0,5.275795E0,7.655213E0,9.679721E0,9.179583E0,4.9472474E-3,6E0,-2.7549876E-2,4E0,1.8131051E0,3.9610276E0,-2.6670579E-2,4.9472474E-3,2E0,2.6985286E-2,1.2549928E-1,1.1806662E0,2.1641145E0,-2.566821E-2,1.134352E-1,4.9472474E-3,7.5960286E-2,2.0767276E-3,1.4904353E-2,4.6399225E-2,-1.9653173E-2,2.322604E-2,1.05849035E-1,6.0691924E0,5.6156244E-2,-2.3164805E-2,-7.234476E-3,-2.499839E-2,1.12954736E-1,-8.401885E-3,-2.0352757E-2,2.5835661E-3,3.795364E-3,-1.597242E-2,-1.6700033E-2,2.1132175E-2,-2.6885156E-2,-2.1764212E-3,-1.2800444E-2,3.182863E-2,-4.912044E-3,-1.8317576E-2,-2.1274632E-2,5.2952573E-2],"split_indices":[10,15,15,10,0,16,0,10,12,12,16,6,12,16,16,10,0,0,16,0,16,16,8,5,16,16,16,0,0,5,16,0,16,3,16,0,5,3,0,0,7,16,0,0,5,8,0,0,0,0,0,0,16,0,0,0,0,0,0,0,0,0,0,0,0,0,0,0,0,0,0,0,0],"split_type":[0,0,0,0,0,0,0,0,0,0,0,0,0,0,0,0,0,0,0,0,0,0,0,0,0,0,0,0,0,0,0,0,0,0,0,0,0,0,0,0,0,0,0,0,0,0,0,0,0,0,0,0,0,0,0,0,0,0,0,0,0,0,0,0,0,0,0,0,0,0,0,0,0],"sum_hessian":[5.400303E3,4.126411E3,1.2738922E3,4.0644302E3,6.1980915E1,5.558888E2,7.1800336E2,3.603222E3,4.6120822E2,9.569257E1,4.6019623E2,3.0527847E3,5.5043726E2,1.6524661E2,2.959616E2,6.1374912E1,3.431766E1,8.587438E1,3.7432187E2,1.4525024E3,1.6002822E3,1.8656012E2,3.6387714E2,9.07124E1,7.453421E1,1.7201698E2,1.2394464E2,4.0775764E1,2.0599146E1,6.581499E1,3.0850687E2,7.1359106E2,8.8669116E2,1.1610919E2,7.045093E1,1.01444626E2,2.6243253E2,8.1542946E1,9.169456E0,2.925581E1,4.52784E1,1.1115467E2,6.0862316E1,1.0769796E1,1.1317484E2,3.2378086E1,8.397678E0,1.3226068E1,7.3730793E0,5.737857E1,8.4364195E0,4.1112946E1,2.6739392E2,2.8191708E1,8.5849945E2,4.0866283E1,7.5242905E1,8.765833E0,6.1685097E1,2.4651263E2,1.5919881E1,2.1220707E1,6.0322243E1,1.1508758E1,3.376964E1,3.9241177E1,7.191349E1,1.0089711E2,1.2277734E1,9.528653E0,2.2849434E1,6.516688E1,2.0222705E2],"tree_param":{"num_deleted":"0","num_feature":"17","num_nodes":"73","size_leaf_vector":"1"}},{"base_weights":[-1.1055769E-2,-7.5397074E-1,2.3747673E0,-8.1413233E-1,7.614845E-2,1.4574984E0,7.7643976E-2,-9.383039E-1,9.832255E-2,8.841194E-1,2.2961595E0,-9.958598E-1,-6.397606E-1,1.1775824E0,-1.6492365E-1,1.1398674E0,-4.3357047E-1,1.8625319E-2,2.3981574E0,-2.6919303E-2,-9.256679E-1,4.1135338E-1,-8.4959507E-1,-2.1071422E-3,1.4085203E0,4.231837E-1,-4.3190426E-1,4.1006622E-1,1.5140165E0,-6.057682E-1,-0E0,9.337266E-2,2.2480493E0,-9.6927357E-1,-7.8089386E-1,9.235249E-1,-1.4327115E-1,-2.5505796E-2,-7.42144E-1,1.5288002E0,5.885702E-3,1.7111804E-1,1.7104963E0,-5.329562E-1,2.638399E-1,-6.712078E-2,1.0154456E0,1.3017887E0,8.529724E-2,-2.4780118E-1,-2.2259116E-2,2.88804E-3,-3.5125462E-3,2.0683656E0,7.83723E-2,-2.6589824E-2,-2.3732197E-2,-7.3493086E-3,-2.305633E-2,-9.197609E-3,3.3017356E-2,-1.99319E-2,1.4558473E-3,-2.1193229E-2,4.0277764E-3,4.2386062E-2,1.8642908E-2,-4.577897E-3,1.2515383E-2,2.284002E-3,6.897775E-2,-2.0865252E-2,-9.115905E-3,-1.9363776E-2,4.3055393E-2,1.8680062E-2,-1.5248826E-2,-0E0,3.546612E-2,4.2062227E-2,1.8641545E-2,-2.1421267E-2,1.0755013E-2,3.6212873E-2,5.674076E-2],"categories":[],"categories_nodes":[],"categories_segments":[],"categories_sizes":[],"default_left":[0,0,0,0,0,0,0,0,0,0,0,0,0,0,0,0,0,0,0,0,0,0,0,0,0,0,0,0,0,0,0,0,0,0,0,0,0,0,0,0,0,0,0,0,0,0,0,0,0,0,0,0,0,0,0,0,0,0,0,0,0,0,0,0,0,0,0,0,0,0,0,0,0,0,0,0,0,0,0,0,0,0,0,0,0],"id":11,"left_children":[1,3,5,7,-1,9,-1,11,13,15,17,19,21,23,25,27,29,-1,31,-1,33,35,37,-1,39,41,43,45,47,49,51,-1,53,55,57,59,61,-1,63,65,-1,67,69,71,73,75,77,79,-1,81,-1,-1,-1,83,-1,-1,-1,-1,-1,-1,-1,-1,-1,-1,-1,-1,-1,-1,-1,-1,-1,-1,-1,-1,-1,-1,-1,-1,-1,-1,-1,-1,-1,-1,-1],"loss_changes":[9.458055E3,9.1383984E2,7.562422E2,4.5455103E2,0E0,2.5125354E2,0E0,5.8835938E1,1.3730844E2,1.0810318E2,3.0406494E1,9.126465E0,1.27467285E2,2.8582855E1,6.088291E1,7.0931854E1,3.720891E0,0E0,2.4927246E1,0E0,6.340332E0,2.789117E1,5.6104736E0,0E0,9.883896E0,3.7515324E1,1.9108799E1,2.742944E1,5.9938812E1,2.4971552E0,2.7515024E-1,0E0,1.6459045E1,6.141968E-1,1.7453552E1,2.4861027E1,6.4146914E0,0E0,2.2399826E1,4.4639587E0,0E0,1.1671599E1,2.8451523E1,1.0605469E1,5.07825E1,2.231449E1,1.5475208E1,2.8273468E1,0E0,7.7913566E0,0E0,0E0,0E0,9.030945E0,0E0,0E0,0E0,0E0,0E0,0E0,0E0,0E0,0E0,0E0,0E0,0E0,0E0,0E0,0E0,0E0,0E0,0E0,0E0,0E0,0E0,0E0,0E0,0E0,0E0,0E0,0E0,0E0,0E0,0E0,0E0],"parents":[2147483647,0,0,1,1,2,2,3,3,5,5,7,7,8,8,9,9,10,10,11,11,12,12,13,13,14,14,15,15,16,16,18,18,20,20,21,21,22,22,24,24,25,25,26,26,27,27,28,28,29,29,30,30,32,32,33,33,34,34,35,35,36,36,38,38,39,39,41,41,42,42,43,43,44,44,45,45,46,46,47,47,49,49,53,53],"right_children":[2,4,6,8,-1,10,-1,12,14,16,18,20,22,24,26,28,30,-1,32,-1,34,36,38,-1,40,42,44,46,48,50,52,-1,54,56,58,60,62,-1,64,66,-1,68,70,72,74,76,78,80,-1,82,-1,-1,-1,84,-1,-1,-1,-1,-1,-1,-1,-1,-1,-1,-1,-1,-1,-1,-1,-1,-1,-1,-1,-1,-1,-1,-1,-1,-1,-1,-1,-1,-1,-1,-1],"split_conditions":[9.4596E-1,5.5941558E-3,5.5941558E-3,8.5846E-1,7.614845E-2,9.836336E-1,7.7643976E-2,7.4838E-1,3E0,9.976962E-1,3.7450946E-3,1.1806662E0,3E0,5.561335E0,9.530728E-1,7.513935E0,9.7355E-1,1.8625319E-2,2E0,-2.6919303E-2,6.2856E-1,9.776532E-1,1.1806662E0,-2.1071422E-3,9.955183E-1,4.9472474E-3,4.9472474E-3,9.6637E-1,4.9472474E-3,8.346896E0,8.486725E0,9.337266E-2,9.9864E-1,3.078E-1,1.3017267E0,1.0013932E0,5.8E0,-2.5505796E-2,4.9472474E-3,9.3313E-1,5.885702E-3,9.0169E-1,7.5960286E-2,8.9277935E-1,6.2E0,9.130604E-1,6.2E0,8.9E0,8.529724E-2,2.4995898E-1,-2.2259116E-2,2.88804E-3,-3.5125462E-3,2.4995898E-1,7.83723E-2,-2.6589824E-2,-2.3732197E-2,-7.3493086E-3,-2.305633E-2,-9.197609E-3,3.3017356E-2,-1.99319E-2,1.4558473E-3,-2.1193229E-2,4.0277764E-3,4.2386062E-2,1.8642908E-2,-4.577897E-3,1.2515383E-2,2.284002E-3,6.897775E-2,-2.0865252E-2,-9.115905E-3,-1.9363776E-2,4.3055393E-2,1.8680062E-2,-1.5248826E-2,-0E0,3.546612E-2,4.2062227E-2,1.8641545E-2,-2.1421267E-2,1.0755013E-2,3.6212873E-2,5.674076E-2],"split_indices":[10,15,15,10,0,10,0,10,1,14,2,7,1,0,12,0,10,0,1,0,10,12,7,0,14,5,5,10,5,0,0,0,10,10,1,8,0,0,5,10,0,10,8,10,0,12,0,0,0,7,0,0,0,7,0,0,0,0,0,0,0,0,0,0,0,0,0,0,0,0,0,0,0,0,0,0,0,0,0,0,0,0,0,0,0],"split_type":[0,0,0,0,0,0,0,0,0,0,0,0,0,0,0,0,0,0,0,0,0,0,0,0,0,0,0,0,0,0,0,0,0,0,0,0,0,0,0,0,0,0,0,0,0,0,0,0,0,0,0,0,0,0,0,0,0,0,0,0,0,0,0,0,0,0,0,0,0,0,0,0,0,0,0,0,0,0,0,0,0,0,0,0,0],"sum_hessian":[5.3345674E3,4.0686504E3,1.2659169E3,4.005026E3,6.3624596E1,5.3033246E2,7.355845E2,3.525901E3,4.791249E2,3.1675714E2,2.135753E2,2.9520562E3,5.7384485E2,9.371694E1,3.8540796E2,2.6581415E2,5.0942997E1,1.3965991E1,1.9960931E2,1.636507E3,1.3155491E3,9.4795906E1,4.7904892E2,1.4178342E1,7.95386E1,1.1936221E2,2.6604575E2,9.1449974E1,1.7436417E2,3.5715958E1,1.5227038E1,1.8282291E1,1.8132703E2,1.00282654E3,3.127225E2,4.953758E1,4.5258327E1,1.9638293E2,2.82666E2,7.1374115E1,8.164485E0,1.0126085E2,1.810137E1,2.3335716E2,3.26886E1,5.105689E1,4.039308E1,1.5809706E2,1.626711E1,1.7090849E1,1.8625107E1,7.388985E0,7.8380537E0,1.522602E2,2.9066835E1,3.663948E2,6.3643176E2,6.2711143E1,2.5001137E2,1.05948105E1,3.894277E1,1.0900108E1,3.435822E1,2.588852E2,2.3780796E1,5.994018E1,1.143393E1,4.740999E1,5.3850857E1,7.5281315E0,1.0573237E1,8.707076E1,1.462864E2,1.902694E1,1.3661657E1,1.969671E1,3.1360178E1,1.1106781E1,2.92863E1,9.721203E1,6.088503E1,9.468484E0,7.622366E0,3.0914762E1,1.2134543E2],"tree_param":{"num_deleted":"0","num_feature":"17","num_nodes":"85","size_leaf_vector":"1"}},{"base_weights":[-1.3891103E-2,-8.0334014E-1,2.3170526E0,-9.376087E-1,3.8469324E-1,1.5415015E0,7.3725685E-2,-9.5132905E-1,6.8158984E-2,1.594164E0,-2.6819902E-2,1.7855064E0,3.2012254E-1,-1.0178888E0,-6.5216213E-1,2.3925455E0,4.9416217E-1,3.7423545E-1,-4.003182E-1,1.6859351E0,1.04123466E-1,-4.3925226E-1,1.6177849E0,-9.4775206E-1,-2.6832886E-2,4.906561E-1,-9.040026E-1,1.3271716E0,7.436681E-2,9.620644E-1,-3.078151E-1,-3.54242E-2,1.7222855E0,2.796596E-1,-6.393244E-1,2.3438922E-1,1.8125073E0,3.43507E-2,-7.612949E-1,2.181554E-3,5.6624558E-2,-1.0086342E0,-4.387875E-1,1.4220855E0,-3.3985826E-1,-7.956905E-1,-2.5423978E-2,5.844316E-3,6.4871915E-2,1.331249E-1,6.293465E-2,-1.7050212E-2,-0E0,-2.1554409E-2,1.8670486E-1,7.298987E-1,7.457955E-2,3.2697886E-2,-6.717658E-2,-2.5455264E-2,-4.547102E-1,-2.5514397E-1,4.1626323E-2,1.1341451E0,2.0702395E0,-2.5525957E-2,-5.0055623E-1,-2.7093882E-2,-2.2810997E-2,5.9483643E-3,-2.1362567E-2,5.7979897E-2,4.7086123E-3,6.596429E-3,-1.99268E-2,-2.3626214E-2,-1.7325901E-3,9.786533E-3,-0E0,1.3694817E-2,-1.4044563E-2,5.085695E-2,-8.909597E-3,1.7239785E-2,-9.273144E-3,-5.6111934E-3,-2.0850578E-2,1.3555546E-2,-1.738717E-2,1.3938155E-2,4.5581527E-2,8.2010105E-2,4.5138128E-2,-3.8385268E-3,-1.7308122E-2],"categories":[],"categories_nodes":[],"categories_segments":[],"categories_sizes":[],"default_left":[0,0,0,0,0,0,0,0,0,0,0,0,0,0,0,0,0,0,0,0,0,0,0,0,0,0,0,0,0,0,0,0,0,0,0,0,0,0,0,0,0,0,0,0,0,0,0,0,0,0,0,0,0,0,0,0,0,0,0,0,0,0,0,0,0,0,0,0,0,0,0,0,0,0,0,0,0,0,0,0,0,0,0,0,0,0,0,0,0,0,0,0,0,0,0],"id":12,"left_children":[1,3,5,7,9,11,-1,13,-1,15,17,19,21,23,25,27,29,31,33,35,-1,37,39,41,-1,43,45,47,-1,49,51,53,55,57,59,61,63,-1,65,-1,-1,67,69,71,73,75,-1,-1,-1,77,-1,-1,-1,-1,79,81,-1,-1,83,-1,85,87,-1,89,91,-1,93,-1,-1,-1,-1,-1,-1,-1,-1,-1,-1,-1,-1,-1,-1,-1,-1,-1,-1,-1,-1,-1,-1,-1,-1,-1,-1,-1,-1],"loss_changes":[9.767497E3,6.333386E2,5.7765283E2,1.775625E2,2.0163313E2,1.6698059E2,0E0,6.889551E1,0E0,8.70293E1,4.5307762E1,9.602637E1,9.631297E1,3.7124023E0,1.8813754E2,2.5169708E1,1.7597973E1,8.1248184E1,2.6006443E1,8.165137E1,0E0,3.579401E1,3.1067383E1,2.60354E1,0E0,9.2351036E1,3.1099243E0,2.6037949E1,0E0,3.405084E1,2.1772633E0,2.063707E1,3.5689186E1,1.5059081E1,6.249317E0,2.7290016E1,6.8318115E1,0E0,1.715559E0,0E0,0E0,2.2977905E0,2.65531E1,5.642855E1,1.6992985E1,2.2339294E1,0E0,0E0,0E0,8.4116954E-1,0E0,0E0,0E0,0E0,2.280518E1,2.9409735E1,0E0,0E0,6.8026323E0,0E0,5.9394093E0,1.0040233E1,0E0,4.2359604E1,9.527661E1,0E0,1.0985875E0,0E0,0E0,0E0,0E0,0E0,0E0,0E0,0E0,0E0,0E0,0E0,0E0,0E0,0E0,0E0,0E0,0E0,0E0,0E0,0E0,0E0,0E0,0E0,0E0,0E0,0E0,0E0,0E0],"parents":[2147483647,0,0,1,1,2,2,3,3,4,4,5,5,7,7,9,9,10,10,11,11,12,12,13,13,14,14,15,15,16,16,17,17,18,18,19,19,21,21,22,22,23,23,25,25,26,26,27,27,29,29,30,30,31,31,32,32,33,33,34,34,35,35,36,36,38,38,41,41,42,42,43,43,44,44,45,45,49,49,54,54,55,55,58,58,60,60,61,61,63,63,64,64,66,66],"right_children":[2,4,6,8,10,12,-1,14,-1,16,18,20,22,24,26,28,30,32,34,36,-1,38,40,42,-1,44,46,48,-1,50,52,54,56,58,60,62,64,-1,66,-1,-1,68,70,72,74,76,-1,-1,-1,78,-1,-1,-1,-1,80,82,-1,-1,84,-1,86,88,-1,90,92,-1,94,-1,-1,-1,-1,-1,-1,-1,-1,-1,-1,-1,-1,-1,-1,-1,-1,-1,-1,-1,-1,-1,-1,-1,-1,-1,-1,-1,-1],"split_conditions":[1.5691E-1,3.846E-2,5.5941558E-3,5.5941558E-3,3E0,9.872346E-1,7.3725685E-2,8.91E-3,6.8158984E-2,2E0,6.4966524E-1,1.3336395E-3,7.5215024E-1,2E0,3E0,7.513935E0,7.0765936E-1,3.5298714E-1,8.65701E-1,3.7450946E-3,1.04123466E-1,3E0,7.513935E0,4.2E-3,-2.6832886E-2,2E0,6.3552153E-1,5.5941558E-3,7.436681E-2,3.5298714E-1,6.011E-2,1.1418288E0,7.513935E0,2E0,8.044915E0,7.2266E-1,3.5298714E-1,3.43507E-2,3.3418E-1,2.181554E-3,5.6624558E-2,1.41E-3,2E0,9.776532E-1,6.7432594E-1,3.5298714E-1,-2.5423978E-2,5.844316E-3,6.4871915E-2,6.568E-2,6.293465E-2,-1.7050212E-2,-0E0,-2.1554409E-2,9.797343E0,9.530728E-1,7.457955E-2,3.2697886E-2,7.193443E-1,-2.5455264E-2,7.9340535E-1,9.5956117E-1,4.1626323E-2,4.5135E-1,6.4966524E-1,-2.5525957E-2,6.819223E-1,-2.7093882E-2,-2.2810997E-2,5.9483643E-3,-2.1362567E-2,5.7979897E-2,4.7086123E-3,6.596429E-3,-1.99268E-2,-2.3626214E-2,-1.7325901E-3,9.786533E-3,-0E0,1.3694817E-2,-1.4044563E-2,5.085695E-2,-8.909597E-3,1.7239785E-2,-9.273144E-3,-5.6111934E-3,-2.0850578E-2,1.3555546E-2,-1.738717E-2,1.3938155E-2,4.5581527E-2,8.2010105E-2,4.5138128E-2,-3.8385268E-3,-1.7308122E-2],"split_indices":[9,9,15,15,1,14,0,9,0,3,13,14,9,1,1,0,13,13,12,2,0,1,0,9,0,3,13,15,0,13,9,3,0,3,0,9,13,0,9,0,0,9,3,12,13,13,0,0,0,9,0,0,0,0,0,12,0,0,13,0,13,12,0,9,13,0,13,0,0,0,0,0,0,0,0,0,0,0,0,0,0,0,0,0,0,0,0,0,0,0,0,0,0,0,0],"split_type":[0,0,0,0,0,0,0,0,0,0,0,0,0,0,0,0,0,0,0,0,0,0,0,0,0,0,0,0,0,0,0,0,0,0,0,0,0,0,0,0,0,0,0,0,0,0,0,0,0,0,0,0,0,0,0,0,0,0,0,0,0,0,0,0,0,0,0,0,0,0,0,0,0,0,0,0,0,0,0,0,0,0,0,0,0,0,0,0,0,0,0,0,0,0,0],"sum_hessian":[5.3063555E3,3.9646008E3,1.3417545E3,3.562734E3,4.0186703E2,5.659696E2,7.7578485E2,3.5501711E3,1.2562532E1,1.0165103E2,3.00216E2,4.708639E2,9.510569E1,2.9001484E3,6.5002277E2,5.782355E1,4.3827484E1,1.4390865E2,1.5630734E2,4.5322574E2,1.7638153E1,6.0119278E1,3.498641E1,8.8543005E2,2.0147184E3,1.1671855E2,5.3330426E2,2.0425623E1,3.739793E1,2.8067272E1,1.5760211E1,1.1078835E2,3.3120296E1,3.988164E1,1.164257E2,3.7016045E1,4.1620972E2,8.373672E0,5.1745605E1,1.0419833E1,2.4566576E1,7.887286E2,9.670152E1,5.5035206E1,6.1683342E1,2.4848077E2,2.8482346E2,1.1640822E1,8.7848E0,1.9092754E1,8.974519E0,7.439456E0,8.320755E0,2.3931349E1,8.6857E1,1.930487E1,1.3815427E1,1.0046542E1,2.9835098E1,3.7015995E1,7.9409706E1,2.7673046E1,9.342998E0,1.1689193E2,2.9931778E2,2.4263784E1,2.7481823E1,5.456857E2,2.4304285E2,3.5395775E1,6.1305744E1,3.191073E1,2.3124475E1,2.5647776E1,3.603557E1,2.1056572E2,3.791506E1,7.137095E0,1.1955659E1,5.975712E1,2.7099888E1,8.784029E0,1.0520841E1,7.4673696E0,2.236773E1,5.0129616E1,2.9280088E1,9.063641E0,1.8609406E1,6.2663097E1,5.4228836E1,6.131772E1,2.3800006E2,1.1085049E1,1.6396774E1],"tree_param":{"num_deleted":"0","num_feature":"17","num_nodes":"95","size_leaf_vector":"1"}},{"base_weights":[-1.1106327E-2,-8.006014E-1,2.202113E0,-9.464715E-1,2.5225458E-1,1.4342434E0,7.03057E-2,-9.584217E-1,6.402921E-2,1.1066257E-1,3.778875E-2,1.1589573E-1,1.2904664E0,-1.0116116E0,-6.532767E-1,1.2203163E0,-3.0316725E-1,4.8094738E-1,1.9006755E0,-9.314479E-1,-1.045264E0,4.7276995E-1,-9.086995E-1,-6.1661597E-2,2.3709583E0,-7.638006E-1,-4.4836685E-2,7.0867765E-1,-7.429655E-1,2.0879526E0,1.0551903E0,-9.9919385E-1,-3.2078362E-1,-2.729552E-2,-9.796772E-1,-4.5084554E-1,1.2890807E0,1.2215636E-2,-9.417541E-1,-1.8937642E-2,9.839397E-2,1.3576127E0,2.7613075E0,-8.4699494E-1,-1.865307E-1,3.8067374E-2,-2.3811775E-1,2.6332827E-2,1.0586435E0,-2.2780677E-2,-7.63993E-3,2.735578E0,1.861978E0,-0E0,1.7430485E0,-2.7104072E-2,-2.2407932E-2,1.2682906E-2,-2.183856E-2,-2.5664678E-2,-1.5858792E-2,-1.568749E-2,1.230332E-3,6.754963E-2,2.2722315E-2,-2.4994133E-2,-1.8834423E-2,7.4199783E-3,-1.2418837E-2,9.00388E-3,6.0932994E-2,7.6848485E-2,4.219456E-2,-2.2876373E-2,-1.16155865E-2,-1.9060992E-2,1.2732241E-2,-3.3510143E-3,-2.4323562E-2,-9.894844E-3,1.7509207E-2,4.9987562E-2,1.9688055E-2,7.810881E-2,3.3070683E-2,4.0148497E-2,6.7952156E-2,8.594766E-3,-8.529705E-3,-1.4174886E-3,5.947668E-2],"categories":[],"categories_nodes":[],"categories_segments":[],"categories_sizes":[],"default_left":[0,0,0,0,0,0,0,0,0,0,0,0,0,0,0,0,0,0,0,0,0,0,0,0,0,0,0,0,0,0,0,0,0,0,0,0,0,0,0,0,0,0,0,0,0,0,0,0,0,0,0,0,0,0,0,0,0,0,0,0,0,0,0,0,0,0,0,0,0,0,0,0,0,0,0,0,0,0,0,0,0,0,0,0,0,0,0,0,0,0,0],"id":13,"left_children":[1,3,5,7,9,11,-1,13,-1,-1,15,-1,17,19,21,23,25,27,29,31,33,35,37,39,41,43,45,47,49,51,53,55,57,-1,59,61,63,-1,65,-1,67,69,71,73,75,-1,77,79,81,-1,-1,83,85,87,89,-1,-1,-1,-1,-1,-1,-1,-1,-1,-1,-1,-1,-1,-1,-1,-1,-1,-1,-1,-1,-1,-1,-1,-1,-1,-1,-1,-1,-1,-1,-1,-1,-1,-1,-1,-1],"loss_changes":[9.162531E3,5.9439966E2,5.683008E2,1.414209E2,4.0770892E2,2.4508154E2,0E0,5.313208E1,0E0,0E0,1.8177692E2,0E0,2.6926117E2,5.41333E0,1.4667462E2,1.5066167E2,4.088816E1,6.698917E1,4.5107788E1,3.464331E1,2.541504E-1,7.2071365E1,1.9770264E1,5.7699285E0,1.4429993E1,5.109558E0,6.623537E1,4.7489143E1,1.3700581E0,2.8742432E1,4.4076225E1,3.4552002E0,3.9382896E1,0E0,2.3523254E0,4.000023E0,2.2561737E1,0E0,9.6539307E-1,0E0,4.4206915E0,1.5239555E1,1.5419312E0,6.28273E-1,7.4329934E0,0E0,1.4520486E1,1.9534733E1,3.098767E1,0E0,0E0,2.1438324E1,3.762805E1,2.8334053E0,3.951301E1,0E0,0E0,0E0,0E0,0E0,0E0,0E0,0E0,0E0,0E0,0E0,0E0,0E0,0E0,0E0,0E0,0E0,0E0,0E0,0E0,0E0,0E0,0E0,0E0,0E0,0E0,0E0,0E0,0E0,0E0,0E0,0E0,0E0,0E0,0E0,0E0],"parents":[2147483647,0,0,1,1,2,2,3,3,4,4,5,5,7,7,10,10,12,12,13,13,14,14,15,15,16,16,17,17,18,18,19,19,20,20,21,21,22,22,23,23,24,24,25,25,26,26,27,27,28,28,29,29,30,30,31,31,32,32,34,34,35,35,36,36,38,38,40,40,41,41,42,42,43,43,44,44,46,46,47,47,48,48,51,51,52,52,53,53,54,54],"right_children":[2,4,6,8,10,12,-1,14,-1,-1,16,-1,18,20,22,24,26,28,30,32,34,36,38,40,42,44,46,48,50,52,54,56,58,-1,60,62,64,-1,66,-1,68,70,72,74,76,-1,78,80,82,-1,-1,84,86,88,90,-1,-1,-1,-1,-1,-1,-1,-1,-1,-1,-1,-1,-1,-1,-1,-1,-1,-1,-1,-1,-1,-1,-1,-1,-1,-1,-1,-1,-1,-1,-1,-1,-1,-1,-1,-1],"split_conditions":[1.5691E-1,3.027E-2,5.5941558E-3,5.5941558E-3,8.622E-1,9.4596E-1,7.03057E-2,9.73E-3,6.402921E-2,1.1066257E-1,2E0,1.1589573E-1,4.5135E-1,2E0,3E0,2.4545866E-3,5.096E-2,9.872346E-1,9.7945076E-1,4.49E-3,8.710661E0,2.4545866E-3,7.6626E-1,7.374621E0,7.0908437E0,4.9472474E-3,9.0169E-1,7.513935E0,3.3418E-1,9.9466085E-1,9.8999393E-1,1.36E-3,2E0,-2.729552E-2,4.9472474E-3,2.2367403E-2,7.7337E-1,1.2215636E-2,4.9472474E-3,-1.8937642E-2,9.2931E-1,5.5941558E-3,9.955183E-1,4.711E-2,8.044915E0,3.8067374E-2,8.4056996E-2,2.7651E-1,2E0,-2.2780677E-2,-7.63993E-3,8.7794626E-1,9.9747E-1,8.3E0,7.513935E0,-2.7104072E-2,-2.2407932E-2,1.2682906E-2,-2.183856E-2,-2.5664678E-2,-1.5858792E-2,-1.568749E-2,1.230332E-3,6.754963E-2,2.2722315E-2,-2.4994133E-2,-1.8834423E-2,7.4199783E-3,-1.2418837E-2,9.00388E-3,6.0932994E-2,7.6848485E-2,4.219456E-2,-2.2876373E-2,-1.16155865E-2,-1.9060992E-2,1.2732241E-2,-3.3510143E-3,-2.4323562E-2,-9.894844E-3,1.7509207E-2,4.9987562E-2,1.9688055E-2,7.810881E-2,3.3070683E-2,4.0148497E-2,6.7952156E-2,8.594766E-3,-8.529705E-3,-1.4174886E-3,5.947668E-2],"split_indices":[9,9,15,15,10,10,0,9,0,0,1,0,9,1,1,4,9,14,14,9,0,4,10,0,0,5,10,0,9,4,10,9,3,0,5,9,10,0,5,0,10,15,14,9,0,0,14,9,3,0,0,5,10,0,0,0,0,0,0,0,0,0,0,0,0,0,0,0,0,0,0,0,0,0,0,0,0,0,0,0,0,0,0,0,0,0,0,0,0,0,0],"split_type":[0,0,0,0,0,0,0,0,0,0,0,0,0,0,0,0,0,0,0,0,0,0,0,0,0,0,0,0,0,0,0,0,0,0,0,0,0,0,0,0,0,0,0,0,0,0,0,0,0,0,0,0,0,0,0,0,0,0,0,0,0,0,0,0,0,0,0,0,0,0,0,0,0,0,0,0,0,0,0,0,0,0,0,0,0,0,0,0,0,0,0],"sum_hessian":[5.2421313E3,3.8645566E3,1.3775748E3,3.394937E3,4.6961954E2,5.730134E2,8.045614E2,3.3841685E3,1.0768748E1,2.2332272E1,4.4728726E2,2.3811592E1,5.4920184E2,2.8778757E3,5.0629272E2,9.992256E1,3.4736472E2,2.3733974E2,3.118621E2,8.658099E2,2.0120658E3,9.296053E1,4.1333218E2,4.746895E1,5.2453613E1,1.2313633E2,2.2422838E2,2.0094328E2,3.6396458E1,2.5338187E2,5.848022E1,7.777592E2,8.8050674E1,1.5098707E3,5.0219507E2,4.3456245E1,4.950429E1,8.827134E0,4.0450507E2,9.12131E0,3.8347637E1,1.639014E1,3.6063473E1,1.06183464E2,1.695287E1,2.3942183E1,2.002862E2,6.915519E1,1.3178809E2,2.5441307E1,1.095515E1,6.171329E1,1.9166856E2,2.321822E1,3.5262E1,5.1737024E2,2.6038895E2,3.428622E1,5.3764454E1,4.6907452E2,3.3120556E1,3.3637093E1,9.819151E0,9.616757E0,3.9887535E1,3.406381E2,6.3866974E1,3.01378E1,8.209838E0,9.310499E0,7.0796413E0,2.7693874E1,8.369599E0,9.226352E1,1.3919939E1,9.819056E0,7.1338134E0,1.7596736E2,2.431883E1,4.2133183E1,2.7022003E1,3.0214935E1,1.0157316E2,4.931824E1,1.2395049E1,1.4268178E2,4.8986786E1,1.0827667E1,1.23905525E1,8.550689E0,2.6711313E1],"tree_param":{"num_deleted":"0","num_feature":"17","num_nodes":"91","size_leaf_vector":"1"}},{"base_weights":[7.802238E-4,-8.1239545E-1,2.070486E0,-9.415158E-1,1.8927442E-1,1.3500295E0,6.727776E-2,-9.5328796E-1,6.1535224E-2,1.3653797E0,-1.8367234E-1,6.102906E-1,1.7224396E0,-1.0073589E0,-6.5727633E-1,1.3209614E-1,2.360218E0,4.599054E-1,-4.6421966E-1,8.2800996E-1,-2.070814E-2,1.8831866E0,8.78233E-1,-1.0321785E0,-8.919667E-1,4.7122356E-1,-9.233328E-1,7.965735E-1,-5.6804293E-1,6.7740194E-2,2.9589778E-2,-7.122752E-2,8.5332966E-1,-2.1004248E-2,-7.660299E-1,1.6708434E0,5.14664E-1,1.7725879E0,9.162324E-2,-0E0,1.661625E0,-2.7326627E-2,-2.5529478E-2,-2.7333987E-1,-2.5446072E-2,-4.638028E-1,1.3055607E0,-2.4957264E-2,-6.3427585E-1,3.932373E-2,9.90909E-4,-6.64634E-3,-2.1629127E-2,2.5893752E-2,-4.9495333E-1,6.3381106E-2,3.067438E-1,-5.1839244E-1,2.9114747E-1,-2.4244059E-2,-5.729041E-1,2.0196591E-1,2.2462015E0,2.8441772E-1,2.0805643E0,2.2122247E0,1.4907253E0,-2.4032359E-1,8.079912E-3,2.5580674E-2,4.999981E-2,-2.4057593E-2,5.521563E-3,2.32968E-3,-2.1817023E-2,1.1451852E-2,6.2109787E-2,-2.5477922E-2,5.2171474E-4,-1.4758067E-2,-3.7145794E-3,-1.1114598E-2,3.0730756E-2,-2.224509E-2,-9.820069E-3,2.5401128E-2,-2.8156787E-3,-2.4625799E-3,-2.257063E-2,-5.35118E-3,1.7030062E-2,7.055895E-2,2.2814864E-2,1.5435362E-2,-1.315495E-2,-0E0,9.0768695E-2,3.4924332E-2,6.4832054E-2,6.890484E-4,4.305635E-2,2.4699024E-3,-1.2785775E-2],"categories":[],"categories_nodes":[],"categories_segments":[],"categories_sizes":[],"default_left":[0,0,0,0,0,0,0,0,0,0,0,0,0,0,0,0,0,0,0,0,0,0,0,0,0,0,0,0,0,0,0,0,0,0,0,0,0,0,0,0,0,0,0,0,0,0,0,0,0,0,0,0,0,0,0,0,0,0,0,0,0,0,0,0,0,0,0,0,0,0,0,0,0,0,0,0,0,0,0,0,0,0,0,0,0,0,0,0,0,0,0,0,0,0,0,0,0,0,0,0,0,0,0],"id":14,"left_children":[1,3,5,7,9,11,-1,13,-1,15,17,19,21,23,25,27,29,31,33,35,-1,37,39,41,43,45,47,49,51,-1,-1,53,55,57,59,61,63,65,-1,67,69,-1,-1,71,-1,73,75,-1,77,-1,-1,-1,-1,-1,79,-1,81,83,85,-1,87,89,91,93,95,97,99,101,-1,-1,-1,-1,-1,-1,-1,-1,-1,-1,-1,-1,-1,-1,-1,-1,-1,-1,-1,-1,-1,-1,-1,-1,-1,-1,-1,-1,-1,-1,-1,-1,-1,-1,-1],"loss_changes":[8.81045E3,4.8669238E2,5.859546E2,1.3257031E2,1.893876E2,1.7541931E2,0E0,5.1303467E1,0E0,1.2552605E2,5.9184036E1,6.830042E1,5.4589478E1,5.763672E0,1.5615504E2,2.2888868E1,1.3845917E1,2.1259275E1,3.0044342E1,4.795668E1,0E0,5.6893066E1,4.9042526E1,3.1762695E-1,3.088086E1,7.8414474E1,4.491699E0,1.3159035E1,1.0313878E0,0E0,0E0,1.9624195E1,4.84355E1,1.50017395E1,3.1264496E0,4.064891E1,4.8645718E1,3.604248E1,0E0,2.707838E0,3.2175674E0,0E0,0E0,2.4876177E1,0E0,1.0727683E1,4.7838356E1,0E0,1.6783236E1,0E0,0E0,0E0,0E0,0E0,3.313179E-1,0E0,3.0604277E1,5.931921E-1,1.7004307E1,0E0,9.524864E0,3.4466014E0,1.974797E1,3.2040443E1,5.132467E1,2.8794556E1,5.7671295E1,2.0896254E0,0E0,0E0,0E0,0E0,0E0,0E0,0E0,0E0,0E0,0E0,0E0,0E0,0E0,0E0,0E0,0E0,0E0,0E0,0E0,0E0,0E0,0E0,0E0,0E0,0E0,0E0,0E0,0E0,0E0,0E0,0E0,0E0,0E0,0E0,0E0],"parents":[2147483647,0,0,1,1,2,2,3,3,4,4,5,5,7,7,9,9,10,10,11,11,12,12,13,13,14,14,15,15,16,16,17,17,18,18,19,19,21,21,22,22,23,23,24,24,25,25,26,26,27,27,28,28,31,31,32,32,33,33,34,34,35,35,36,36,37,37,39,39,40,40,43,43,45,45,46,46,48,48,54,54,56,56,57,57,58,58,60,60,61,61,62,62,63,63,64,64,65,65,66,66,67,67],"right_children":[2,4,6,8,10,12,-1,14,-1,16,18,20,22,24,26,28,30,32,34,36,-1,38,40,42,44,46,48,50,52,-1,-1,54,56,58,60,62,64,66,-1,68,70,-1,-1,72,-1,74,76,-1,78,-1,-1,-1,-1,-1,80,-1,82,84,86,-1,88,90,92,94,96,98,100,102,-1,-1,-1,-1,-1,-1,-1,-1,-1,-1,-1,-1,-1,-1,-1,-1,-1,-1,-1,-1,-1,-1,-1,-1,-1,-1,-1,-1,-1,-1,-1,-1,-1,-1,-1],"split_conditions":[1.3159E-1,3.027E-2,5.5941558E-3,5.5941558E-3,2E0,3.0341E-1,6.727776E-2,9.42E-3,6.1535224E-2,2.4545866E-3,9.841619E-1,9.650316E-1,9.872346E-1,4.91E-3,3E0,6.705597E-1,9.955183E-1,3.5298714E-1,6.3033336E-1,2E0,-2.070814E-2,1.3336395E-3,7.5215024E-1,1.0184565E0,1.3017267E0,2.4545866E-3,4.9472474E-3,6.011E-2,7.456088E-1,6.7740194E-2,2.9589778E-2,9.490694E-1,6.5E-1,5.096E-2,7.200421E-1,3.5298714E-1,4.9472474E-3,9.6957207E-1,9.162324E-2,5.459338E-1,8.671851E-1,-2.7326627E-2,-2.5529478E-2,4.0270835E-1,-2.5446072E-2,6.5124375E-1,4.500771E-1,-2.4957264E-2,7.5960286E-2,3.932373E-2,9.90909E-4,-6.64634E-3,-2.1629127E-2,2.5893752E-2,8.374E-2,6.3381106E-2,5.555E-2,1.1418288E0,1E0,-2.4244059E-2,7.9498434E-1,1.7287E-1,7.8E-1,7.468932E-1,7.5960286E-2,3.5298714E-1,1.0184565E0,5.359426E-1,8.079912E-3,2.5580674E-2,4.999981E-2,-2.4057593E-2,5.521563E-3,2.32968E-3,-2.1817023E-2,1.1451852E-2,6.2109787E-2,-2.5477922E-2,5.2171474E-4,-1.4758067E-2,-3.7145794E-3,-1.1114598E-2,3.0730756E-2,-2.224509E-2,-9.820069E-3,2.5401128E-2,-2.8156787E-3,-2.4625799E-3,-2.257063E-2,-5.35118E-3,1.7030062E-2,7.055895E-2,2.2814864E-2,1.5435362E-2,-1.315495E-2,-0E0,9.0768695E-2,3.4924332E-2,6.4832054E-2,6.890484E-4,4.305635E-2,2.4699024E-3,-1.2785775E-2],"split_indices":[9,9,15,15,1,9,0,9,0,4,12,14,14,9,1,13,14,13,13,3,0,14,9,6,1,4,5,9,13,0,0,4,13,9,13,13,5,12,0,9,9,0,0,13,0,13,13,0,8,0,0,0,0,0,9,0,9,3,6,0,13,9,13,13,8,13,6,13,0,0,0,0,0,0,0,0,0,0,0,0,0,0,0,0,0,0,0,0,0,0,0,0,0,0,0,0,0,0,0,0,0,0,0],"split_type":[0,0,0,0,0,0,0,0,0,0,0,0,0,0,0,0,0,0,0,0,0,0,0,0,0,0,0,0,0,0,0,0,0,0,0,0,0,0,0,0,0,0,0,0,0,0,0,0,0,0,0,0,0,0,0,0,0,0,0,0,0,0,0,0,0,0,0,0,0,0,0,0,0,0,0,0,0,0,0,0,0,0,0,0,0,0,0,0,0,0,0,0,0,0,0,0,0,0,0,0,0,0,0],"sum_hessian":[5.232227E3,3.756606E3,1.4756212E3,3.3282988E3,4.2830716E2,6.4539606E2,8.3022516E2,3.317584E3,1.0714869E1,1.0286297E2,3.2544418E2,2.1765627E2,4.2773984E2,2.801108E3,5.164759E2,4.6765934E1,5.609703E1,9.787259E1,2.2757161E2,1.8949442E2,2.8161846E1,3.575554E2,7.018444E1,2.2935474E3,5.0756073E2,9.790082E1,4.1857507E2,2.4405436E1,2.23605E1,4.3881767E1,1.2215265E1,4.1301075E1,5.6571514E1,9.354399E1,1.3402762E2,4.9527664E1,1.3996675E2,3.3807147E2,1.9483913E1,3.358536E1,3.659908E1,1.1256361E3,1.1679111E3,7.316344E1,4.3439728E2,4.601297E1,5.1887848E1,3.513968E2,6.717827E1,1.1357139E1,1.3048297E1,1.2685319E1,9.675181E0,1.0761534E1,3.053954E1,1.300359E1,4.3567924E1,3.6618362E1,5.6925625E1,6.530409E1,6.8723526E1,1.4670947E1,3.4856716E1,1.2349484E2,1.6471907E1,1.28293E2,2.0977847E2,1.9231705E1,1.4353656E1,1.3307914E1,2.3291166E1,3.11291E1,4.2034332E1,1.8573956E1,2.7439016E1,3.0556314E1,2.1331532E1,4.361081E1,2.3567457E1,2.2675882E1,7.863658E0,2.3711235E1,1.985669E1,7.1962442E0,2.942212E1,2.0751608E1,3.617402E1,2.8397049E1,4.0326477E1,7.3235083E0,7.3474393E0,2.4178032E1,1.0678684E1,8.906362E1,3.443122E1,7.4122944E0,9.059612E0,3.7211124E1,9.108188E1,2.4720028E1,1.8505844E2,7.536338E0,1.1695368E1],"tree_param":{"num_deleted":"0","num_feature":"17","num_nodes":"103","size_leaf_vector":"1"}},{"base_weights":[-1.3512853E-2,-7.2079915E-1,1.9546741E0,-7.8102237E-1,6.43238E-2,1.1713465E0,6.457385E-2,-9.4044024E-1,-9.2010505E-2,-3.242115E-1,1.453123E0,-1.0070637E0,-7.824928E-1,9.3128604E-1,-3.310482E-1,1.1192944E-1,-2.7532881E-2,8.072378E-2,1.0361537E0,-1.0104938E0,-3.350685E-3,-8.245519E-2,-9.2622864E-1,1.182586E-2,1.4376572E0,1.4341882E-1,-5.516176E-1,-3.3003852E-1,9.6783555E-1,-6.577407E-1,1.358156E0,-2.7426833E-2,-9.6021307E-1,4.157744E-1,-4.938029E-1,-9.900283E-1,-7.570419E-1,2.3720145E-1,-1.3250966E-2,8.970938E-2,6.960477E-1,-6.46688E-1,1.1327444E0,-8.037022E-1,-1.9245096E-1,-5.2982885E-1,7.6826806E-3,9.547101E-3,4.3124802E-2,-2.0943936E-2,7.880618E-3,8.61692E-2,1.014411E0,2.874909E-2,-2.586781E-2,-1.4114781E-2,5.1906087E-2,-2.5730863E-2,-7.6952763E-3,-2.7270714E-2,-2.3651905E-2,-2.5013866E-2,-9.226572E-3,1.8038461E-2,-0E0,2.5234064E-3,5.4457266E-2,-2.3337971E-2,-1.0378495E-2,1.10951886E-1,-8.29011E-3,-2.6991451E-2,-1.8149758E-2,1.0505195E-1,-1.3251303E-2,-3.0376446E-3,-1.6219875E-2,-1.9197147E-2,3.9271913E-2],"categories":[],"categories_nodes":[],"categories_segments":[],"categories_sizes":[],"default_left":[0,0,0,0,0,0,0,0,0,0,0,0,0,0,0,0,0,0,0,0,0,0,0,0,0,0,0,0,0,0,0,0,0,0,0,0,0,0,0,0,0,0,0,0,0,0,0,0,0,0,0,0,0,0,0,0,0,0,0,0,0,0,0,0,0,0,0,0,0,0,0,0,0,0,0,0,0,0,0],"id":15,"left_children":[1,3,5,7,-1,9,-1,11,13,15,17,19,21,23,25,27,-1,-1,29,31,-1,33,35,37,39,41,43,45,47,49,51,-1,53,55,57,59,61,63,-1,-1,65,67,69,71,73,75,-1,-1,-1,-1,-1,-1,77,-1,-1,-1,-1,-1,-1,-1,-1,-1,-1,-1,-1,-1,-1,-1,-1,-1,-1,-1,-1,-1,-1,-1,-1,-1,-1],"loss_changes":[7.239224E3,7.458601E2,6.0497705E2,4.1192407E2,0E0,2.4555646E2,0E0,3.006836E1,1.7309976E2,3.1035664E1,3.3976746E2,5.5283203E0,9.108557E1,6.1320297E1,6.0552723E1,2.3032982E1,0E0,0E0,2.1635529E2,4.036865E0,0E0,3.253761E1,6.2026367E0,5.7979183E0,1.2606485E2,1.437085E2,3.483145E1,5.244991E0,6.83963E0,1.040081E1,2.223346E2,0E0,1.2392407E2,1.1287169E2,7.448927E0,3.287964E-1,1.743943E1,3.7759225E0,0E0,0E0,5.36147E1,5.231045E0,3.8526385E2,3.4966583E0,2.301026E2,7.352295E-1,0E0,0E0,0E0,0E0,0E0,0E0,2.6287204E2,0E0,0E0,0E0,0E0,0E0,0E0,0E0,0E0,0E0,0E0,0E0,0E0,0E0,0E0,0E0,0E0,0E0,0E0,0E0,0E0,0E0,0E0,0E0,0E0,0E0,0E0],"parents":[2147483647,0,0,1,1,2,2,3,3,5,5,7,7,8,8,9,9,10,10,11,11,12,12,13,13,14,14,15,15,18,18,19,19,21,21,22,22,23,23,24,24,25,25,26,26,27,27,28,28,29,29,30,30,32,32,33,33,34,34,35,35,36,36,37,37,40,40,41,41,42,42,43,43,44,44,45,45,52,52],"right_children":[2,4,6,8,-1,10,-1,12,14,16,18,20,22,24,26,28,-1,-1,30,32,-1,34,36,38,40,42,44,46,48,50,52,-1,54,56,58,60,62,64,-1,-1,66,68,70,72,74,76,-1,-1,-1,-1,-1,-1,78,-1,-1,-1,-1,-1,-1,-1,-1,-1,-1,-1,-1,-1,-1,-1,-1,-1,-1,-1,-1,-1,-1,-1,-1,-1,-1],"split_conditions":[9.4596E-1,5.5941558E-3,5.5941558E-3,8.1607E-1,6.43238E-2,2.1641145E0,6.457385E-2,6.2592E-1,2E0,1.9587219E-1,3.9610276E0,3.2419907E1,3E0,2.1641145E0,9.5956117E-1,9.7355E-1,-2.7532881E-2,8.072378E-2,4.0349817E0,2.1641145E0,-3.350685E-3,9.430207E-1,6.0691924E0,9.1406E-1,3.9610276E0,2.1641145E0,6.0691924E0,9.679721E0,9.179583E0,4.9472474E-3,5.9616404E0,-2.7426833E-2,4E0,2.1641145E0,5.647664E0,2.1641145E0,8.710661E0,7.8E0,-1.3250966E-2,8.970938E-2,8.407405E0,7.6528573E0,3.9610276E0,2.1641145E0,7.9652576E0,2.4995898E-1,7.6826806E-3,9.547101E-3,4.3124802E-2,-2.0943936E-2,7.880618E-3,8.61692E-2,6.0691924E0,2.874909E-2,-2.586781E-2,-1.4114781E-2,5.1906087E-2,-2.5730863E-2,-7.6952763E-3,-2.7270714E-2,-2.3651905E-2,-2.5013866E-2,-9.226572E-3,1.8038461E-2,-0E0,2.5234064E-3,5.4457266E-2,-2.3337971E-2,-1.0378495E-2,1.10951886E-1,-8.29011E-3,-2.6991451E-2,-1.8149758E-2,1.0505195E-1,-1.3251303E-2,-3.0376446E-3,-1.6219875E-2,-1.9197147E-2,3.9271913E-2],"split_indices":[10,15,15,10,0,16,0,10,1,12,16,16,1,16,12,10,0,0,16,16,0,12,16,10,16,16,16,0,0,5,16,0,16,16,0,16,0,0,0,0,16,0,16,16,16,7,0,0,0,0,0,0,16,0,0,0,0,0,0,0,0,0,0,0,0,0,0,0,0,0,0,0,0,0,0,0,0,0,0],"split_type":[0,0,0,0,0,0,0,0,0,0,0,0,0,0,0,0,0,0,0,0,0,0,0,0,0,0,0,0,0,0,0,0,0,0,0,0,0,0,0,0,0,0,0,0,0,0,0,0,0,0,0,0,0,0,0,0,0,0,0,0,0,0,0,0,0,0,0,0,0,0,0,0,0,0,0,0,0,0,0],"sum_hessian":[5.198764E3,3.8251687E3,1.3735955E3,3.7562095E3,6.895937E1,5.786558E2,7.9493964E2,3.0493271E3,7.0688226E2,9.134004E1,4.8731577E2,2.1376848E3,9.1164215E2,1.327443E2,5.74138E2,5.7797863E1,3.3542175E1,9.432307E1,3.929927E2,2.1284312E3,9.253706E0,1.5637096E2,7.5527124E2,4.799713E1,8.4747154E1,1.81365E2,3.9277298E2,3.8036705E1,1.976116E1,6.226585E1,3.3072687E2,9.496431E2,1.1787881E3,6.998163E1,8.6389336E1,5.4183704E2,2.1343416E2,3.4957066E1,1.3040067E1,2.1100794E1,6.3646362E1,1.0066729E2,8.069772E1,2.2892668E2,1.6384631E2,2.9808828E1,8.227876E0,1.2188065E1,7.5730944E0,5.413725E1,8.128599E0,4.670845E1,2.840184E2,2.6765018E1,1.1520231E3,4.391599E1,2.606564E1,2.153434E1,6.4854996E1,2.4228221E2,2.9955484E2,1.352626E2,7.8171555E1,1.0625965E1,2.43311E1,4.602824E1,1.7618122E1,4.5289104E1,5.5378185E1,2.4723526E1,5.5974194E1,5.804651E1,1.7088017E2,1.0510144E1,1.5333617E2,7.749644E0,2.2059185E1,6.418608E1,2.1983232E2],"tree_param":{"num_deleted":"0","num_feature":"17","num_nodes":"79","size_leaf_vector":"1"}},{"base_weights":[-1.9811666E-2,-8.11749E-1,1.8761208E0,-9.591809E-1,7.5026415E-2,1.0581726E0,2.1915627E0,-1.0072626E0,-6.776189E-1,1.1254742E-1,-1.1634653E-1,3.4770756E0,7.316339E-1,1.2073565E0,2.2587252E0,-2.7153285E-2,-9.58221E-1,1.3816192E0,-7.621219E-1,5.047288E-1,-4.7417665E-1,9.745969E-2,6.229795E-2,-3.466502E-1,1.0460514E0,1.4566419E0,3.7622002E-1,1.8035086E0,2.308533E0,-2.720123E-2,-8.7217355E-1,5.488927E-2,9.893569E-3,-4.481767E-1,-8.7826943E-1,-4.0776932E-1,1.593895E0,-7.829622E-1,-1.0494665E-1,-7.270636E-1,6.671929E-1,8.806799E-2,7.0731E-1,4.4691898E-2,1.155345E0,-3.3998112E-3,2.0309271E-2,7.311823E-2,1.5361496E0,2.0736492E0,6.0710542E-2,1.9410392E0,-9.61582E-1,1.9508647E-2,-7.901577E-1,-9.1726387E-1,-6.165169E-1,9.350317E-4,-6.0743046E-1,9.4719134E-2,1.5267716E-1,-2.2362566E-2,-5.441009E-1,1.3731238E0,-3.69639E-1,-2.393756E-2,-2.6766047E-1,-1.9465527E-3,1.0835732E0,1.7000309E0,2.5830355E-1,4.2129472E-2,2.3171658E-2,1.6717247E0,1.6968312E-2,5.8616214E-2,1.6785058E0,-1.2449217E-2,8.434637E-2,-2.683923E-2,-2.2293927E-2,-1.188434E-2,2.9540949E-2,-2.306512E-2,-8.88035E-3,-2.0882431E-2,-2.5570048E-2,-2.2214852E-2,6.194354E-3,-1.8830061E-2,8.883279E-3,-2.0569889E-2,-6.355243E-3,1.9156693E-2,-1.2792078E-2,2.0482976E-3,-2.071859E-2,4.4902686E-2,1.8215768E-2,-1.9140447E-2,2.8400694E-3,1.2377324E-3,-1.7770303E-2,4.082491E-2,8.160728E-3,8.408099E-3,5.015347E-2,-7.346182E-3,1.9687133E-2,4.7678694E-2,2.3712905E-2,5.5173147E-2,2.1702137E-2],"categories":[],"categories_nodes":[],"categories_segments":[],"categories_sizes":[],"default_left":[0,0,0,0,0,0,0,0,0,0,0,0,0,0,0,0,0,0,0,0,0,0,0,0,0,0,0,0,0,0,0,0,0,0,0,0,0,0,0,0,0,0,0,0,0,0,0,0,0,0,0,0,0,0,0,0,0,0,0,0,0,0,0,0,0,0,0,0,0,0,0,0,0,0,0,0,0,0,0,0,0,0,0,0,0,0,0,0,0,0,0,0,0,0,0,0,0,0,0,0,0,0,0,0,0,0,0,0,0,0,0,0,0],"id":16,"left_children":[1,3,5,7,9,11,13,15,17,-1,19,21,23,25,27,-1,29,31,33,35,37,-1,-1,39,41,43,45,47,49,-1,51,-1,-1,53,55,57,59,61,63,65,67,-1,69,-1,71,-1,-1,-1,73,75,-1,77,79,81,83,85,87,89,91,-1,93,-1,95,97,99,-1,101,-1,103,105,107,-1,-1,109,-1,-1,111,-1,-1,-1,-1,-1,-1,-1,-1,-1,-1,-1,-1,-1,-1,-1,-1,-1,-1,-1,-1,-1,-1,-1,-1,-1,-1,-1,-1,-1,-1,-1,-1,-1,-1,-1,-1],"loss_changes":[7.7115156E3,4.74375E2,3.857754E2,4.0220947E1,4.3071658E2,3.292185E2,6.686279E1,4.476074E0,8.050481E1,0E0,1.10430984E2,3.093567E0,1.2798015E2,1.3235596E1,1.5922852E1,0E0,1.0216309E1,1.11933365E1,1.4795776E1,1.8146008E2,3.5329933E1,0E0,0E0,3.3332897E1,2.3059784E2,6.8909454E-1,4.5409107E0,2.2400146E1,5.161133E0,0E0,1.958186E2,0E0,0E0,2.0192198E1,1.6389008E0,8.486675E0,2.48955E2,2.2368698E0,5.7013702E1,4.9252625E0,7.95745E0,0E0,1.12588425E2,0E0,5.340271E-1,0E0,0E0,0E0,7.673218E0,1.0472168E1,0E0,8.218789E1,3.6567993E0,2.9632723E1,2.3603935E0,1.895752E-1,1.0746231E1,8.288921E0,3.8475933E0,0E0,2.0226723E1,0E0,9.108735E0,2.574829E0,2.3222702E1,0E0,3.433958E0,0E0,4.262558E0,2.5898132E1,5.0202152E1,0E0,0E0,6.9028015E0,0E0,0E0,2.6296432E1,0E0,0E0,0E0,0E0,0E0,0E0,0E0,0E0,0E0,0E0,0E0,0E0,0E0,0E0,0E0,0E0,0E0,0E0,0E0,0E0,0E0,0E0,0E0,0E0,0E0,0E0,0E0,0E0,0E0,0E0,0E0,0E0,0E0,0E0,0E0,0E0],"parents":[2147483647,0,0,1,1,2,2,3,3,4,4,5,5,6,6,7,7,8,8,10,10,11,11,12,12,13,13,14,14,16,16,17,17,18,18,19,19,20,20,23,23,24,24,25,25,26,26,27,27,28,28,30,30,33,33,34,34,35,35,36,36,37,37,38,38,39,39,40,40,42,42,44,44,48,48,49,49,51,51,52,52,53,53,54,54,55,55,56,56,57,57,58,58,60,60,62,62,63,63,64,64,66,66,68,68,69,69,70,70,73,73,76,76],"right_children":[2,4,6,8,10,12,14,16,18,-1,20,22,24,26,28,-1,30,32,34,36,38,-1,-1,40,42,44,46,48,50,-1,52,-1,-1,54,56,58,60,62,64,66,68,-1,70,-1,72,-1,-1,-1,74,76,-1,78,80,82,84,86,88,90,92,-1,94,-1,96,98,100,-1,102,-1,104,106,108,-1,-1,110,-1,-1,112,-1,-1,-1,-1,-1,-1,-1,-1,-1,-1,-1,-1,-1,-1,-1,-1,-1,-1,-1,-1,-1,-1,-1,-1,-1,-1,-1,-1,-1,-1,-1,-1,-1,-1,-1,-1],"split_conditions":[1.2134E-1,2.2367403E-2,4.5135E-1,8.7E-3,8.4096E-1,9.366E-1,2.1641145E0,1.0184565E0,7.5184E-1,1.1254742E-1,9.909175E-1,1.3336395E-3,2.1641145E0,8.2767916E-1,6.0045E-1,-2.7153285E-2,2.1641145E0,1.8131051E0,1.8131051E0,2.1641145E0,5.096E-2,9.745969E-2,6.229795E-2,3.3418E-1,3.9610276E0,7.8096163E-1,9.179583E0,9.7355E-1,7.513935E0,-2.720123E-2,4E0,5.488927E-2,9.893569E-3,8.5642254E-1,4.9472474E-3,2E0,3.9610276E0,3.846E-2,9.0169E-1,2.2979175E-1,2.4545866E-3,8.806799E-2,2E0,4.4691898E-2,1.6643443E0,-3.3998112E-3,2.0309271E-2,7.311823E-2,1.5508859E1,7.5E0,6.0710542E-2,1.36E-3,4.0349817E0,2.1641145E0,1.709E-2,5.758457E0,8.669837E0,8.136186E-1,7.849767E0,9.4719134E-2,8.181625E0,-2.2362566E-2,8.8506E-1,7.849767E0,6.0691924E0,-2.393756E-2,9.637523E-1,-1.9465527E-3,1.3336395E-3,4.0349817E0,2.5204E-1,4.2129472E-2,2.3171658E-2,9.976962E-1,1.6968312E-2,5.8616214E-2,8E0,-1.2449217E-2,8.434637E-2,-2.683923E-2,-2.2293927E-2,-1.188434E-2,2.9540949E-2,-2.306512E-2,-8.88035E-3,-2.0882431E-2,-2.5570048E-2,-2.2214852E-2,6.194354E-3,-1.8830061E-2,8.883279E-3,-2.0569889E-2,-6.355243E-3,1.9156693E-2,-1.2792078E-2,2.0482976E-3,-2.071859E-2,4.4902686E-2,1.8215768E-2,-1.9140447E-2,2.8400694E-3,1.2377324E-3,-1.7770303E-2,4.082491E-2,8.160728E-3,8.408099E-3,5.015347E-2,-7.346182E-3,1.9687133E-2,4.7678694E-2,2.3712905E-2,5.5173147E-2,2.1702137E-2],"split_indices":[9,9,9,9,10,10,16,6,10,0,12,14,16,9,9,0,16,3,3,16,9,0,0,9,16,12,0,10,0,0,16,0,0,12,5,3,16,9,10,9,4,0,3,0,3,0,0,0,16,0,0,9,16,16,9,16,0,3,0,0,0,0,10,0,16,0,10,0,12,16,9,0,0,14,0,0,16,0,0,0,0,0,0,0,0,0,0,0,0,0,0,0,0,0,0,0,0,0,0,0,0,0,0,0,0,0,0,0,0,0,0,0,0],"split_type":[0,0,0,0,0,0,0,0,0,0,0,0,0,0,0,0,0,0,0,0,0,0,0,0,0,0,0,0,0,0,0,0,0,0,0,0,0,0,0,0,0,0,0,0,0,0,0,0,0,0,0,0,0,0,0,0,0,0,0,0,0,0,0,0,0,0,0,0,0,0,0,0,0,0,0,0,0,0,0,0,0,0,0,0,0,0,0,0,0,0,0,0,0,0,0,0,0,0,0,0,0,0,0,0,0,0,0,0,0,0,0,0,0],"sum_hessian":[5.134332E3,3.6222622E3,1.5120697E3,3.1064565E3,5.1580566E2,4.227156E2,1.0893541E3,2.648983E3,4.5747342E2,2.1031916E1,4.9477377E2,4.8809376E1,3.7390622E2,7.151608E1,1.017838E3,1.2546113E3,1.3943716E3,1.7076656E1,4.403968E2,1.800211E2,3.1475266E2,3.448696E1,1.4322414E1,8.39116E1,2.8999463E2,5.3781834E1,1.7734251E1,1.0561903E2,9.12219E2,6.222533E2,7.7211835E2,8.5961895E0,8.480468E0,1.2187649E2,3.185203E2,9.798663E1,8.203447E1,1.6977454E2,1.4497813E2,6.171313E1,2.219847E1,3.4502636E1,2.5549197E2,2.3726912E1,3.005492E1,7.595265E0,1.0138987E1,1.8805977E1,8.681306E1,2.0115733E2,7.1106165E2,2.2872988E1,7.4924536E2,5.1082134E1,7.079436E1,2.72684E2,4.5836292E1,3.1415308E1,6.657132E1,3.247194E1,4.9562534E1,1.19111725E2,5.0662815E1,2.095879E1,1.2401934E2,4.0739735E1,2.0973396E1,7.7114954E0,1.4486973E1,7.81818E1,1.7731018E2,7.2578487E0,2.2797071E1,7.364598E1,1.3167075E1,1.2578683E2,7.537051E1,8.255051E0,1.4617938E1,3.7449182E2,3.7475354E2,3.584306E1,1.5239077E1,5.45819E1,1.6212452E1,1.299443E2,1.4273969E2,3.6055954E1,9.780336E0,9.044548E0,2.237076E1,4.103191E1,2.5539412E1,2.6360031E1,2.3202503E1,1.4575051E1,3.6087765E1,1.1552242E1,9.4065485E0,6.987242E1,5.414692E1,1.1693781E1,9.279614E0,7.4714913E0,7.015482E0,1.3190994E1,6.499081E1,8.53401E1,9.197008E1,5.6695255E1,1.6950727E1,4.6328007E1,2.9042496E1],"tree_param":{"num_deleted":"0","num_feature":"17","num_nodes":"113","size_leaf_vector":"1"}},{"base_weights":[9.077151E-4,-8.067948E-1,1.8368239E0,-9.524987E-1,3.0011835E-2,1.1111791E0,2.1180174E0,-1.0018522E0,-6.508904E-1,1.1875846E0,-3.73098E-1,1.7961804E0,7.4677503E-1,1.3253729E0,2.1498082E0,-2.7135432E-2,-9.486129E-1,2.3145828E-1,-8.727184E-1,-1.064661E-1,2.0840666E0,-6.8088496E-1,-4.488158E-2,4.0164134E-3,1.8870069E0,9.347896E-1,-4.2781597E-1,4.28902E-1,5.03241E-2,1.9803426E0,5.679165E-2,-2.5234457E-2,-8.249677E-1,-6.737382E-1,9.1471165E-1,-4.5909223E-1,-9.046811E-1,4.6814823E-1,-1.6166573E-2,1.7076721E-2,2.2113876E0,-2.887318E-1,-8.410293E-1,5.8406517E-2,-2.3403117E-2,2.280616E0,1.4768053E0,1.1853404E0,9.029887E-2,-2.0457873E-2,-1.6525409E-1,2.2481304E-2,-4.4834157E-3,2.089003E0,1.628135E0,-2.559035E-1,-9.7010684E-1,-9.279093E-3,-2.0705756E-2,4.0134147E-1,1.6276773E0,3.221924E-3,-7.505395E-1,-2.4274739E-2,-6.777097E-1,8.407469E-1,-8.83473E-5,2.3165455E0,2.5944304E-2,-5.059312E-1,2.0792611E-2,-5.6476706E-1,-2.3596052E-2,-4.763358E-1,2.0437557E-1,3.1912703E-2,6.135431E-2,-2.7479738E-1,1.9139944E0,1.0600462E0,8.8799596E-2,-4.970517E-1,6.5750426E-1,9.138412E-4,-3.0903953E-1,1.6341108E0,5.5743407E-2,1.7369173E-2,1.7524835E0,-2.180661E-2,1.1660554E-2,-1.9677503E-2,-2.6116153E-2,-5.4231137E-3,1.7892133E-2,7.32908E-2,3.8310213E-3,-2.3895247E-2,-7.779969E-3,-2.3863683E-2,-0E0,6.5936707E-3,3.1454362E-2,6.3387886E-2,3.48349E-2,1.1064632E-4,-1.6927319E-2,-2.1488784E-2,-7.638787E-3,-0E0,-1.933943E-2,1.9430374E-3,3.9860897E-2,-1.1250189E-2,-0E0,5.9166357E-2,2.4307106E-2,3.1566948E-2,-0E0,-2.159764E-2,-6.612293E-3,5.9803266E-2,-1.490139E-2,-1.1155552E-2,-1.2206957E-3,4.6685815E-2,2.0155191E-2,3.705082E-2,5.325364E-2],"categories":[],"categories_nodes":[],"categories_segments":[],"categories_sizes":[],"default_left":[0,0,0,0,0,0,0,0,0,0,0,0,0,0,0,0,0,0,0,0,0,0,0,0,0,0,0,0,0,0,0,0,0,0,0,0,0,0,0,0,0,0,0,0,0,0,0,0,0,0,0,0,0,0,0,0,0,0,0,0,0,0,0,0,0,0,0,0,0,0,0,0,0,0,0,0,0,0,0,0,0,0,0,0,0,0,0,0,0,0,0,0,0,0,0,0,0,0,0,0,0,0,0,0,0,0,0,0,0,0,0,0,0,0,0,0,0,0,0,0,0,0,0,0,0,0,0,0,0],"id":17,"left_children":[1,3,5,7,9,11,13,15,17,19,21,23,25,27,29,-1,31,33,35,37,39,41,43,-1,45,47,49,51,-1,53,-1,-1,55,57,59,61,63,65,-1,-1,67,69,71,73,-1,75,77,79,81,-1,83,-1,-1,85,87,89,91,-1,-1,93,95,-1,97,-1,99,101,-1,103,-1,105,-1,107,-1,109,111,-1,-1,113,115,117,-1,119,121,-1,123,125,-1,-1,127,-1,-1,-1,-1,-1,-1,-1,-1,-1,-1,-1,-1,-1,-1,-1,-1,-1,-1,-1,-1,-1,-1,-1,-1,-1,-1,-1,-1,-1,-1,-1,-1,-1,-1,-1,-1,-1,-1,-1,-1],"loss_changes":[7.5414033E3,4.311975E2,3.1241455E2,4.298535E1,2.455461E2,1.0593396E2,2.2821777E1,5.5393066E0,8.441028E1,1.5936464E2,3.8789436E1,2.0707458E1,6.428757E1,2.4300102E1,4.876465E0,0E0,4.122925E0,5.4145714E1,3.1826172E0,1.7429735E1,1.1077026E1,1.1529129E1,1.7722872E1,0E0,1.682431E1,5.1676575E1,3.109447E0,6.394597E0,0E0,6.13855E0,0E0,0E0,2.558751E1,4.746132E-1,1.6257347E1,5.331944E0,1.3345947E0,5.290801E0,0E0,0E0,4.5006104E0,1.4753117E1,1.5676804E0,1.3236671E1,0E0,2.7015991E0,5.7832443E1,4.77323E1,2.0006393E1,0E0,9.383238E-1,0E0,0E0,3.229248E0,6.764557E0,2.94859E1,5.435791E-1,0E0,0E0,6.139598E0,3.411092E1,0E0,4.8780346E-1,0E0,9.159561E0,2.2543201E0,0E0,3.8682861E0,0E0,4.5452375E0,0E0,1.6231956E0,0E0,4.866149E0,2.2370392E1,0E0,0E0,4.190513E-1,1.8119888E1,3.4306183E1,0E0,1.4230981E0,6.685589E1,0E0,2.2143424E-1,3.8157196E0,0E0,0E0,1.5356598E0,0E0,0E0,0E0,0E0,0E0,0E0,0E0,0E0,0E0,0E0,0E0,0E0,0E0,0E0,0E0,0E0,0E0,0E0,0E0,0E0,0E0,0E0,0E0,0E0,0E0,0E0,0E0,0E0,0E0,0E0,0E0,0E0,0E0,0E0,0E0,0E0,0E0,0E0,0E0,0E0],"parents":[2147483647,0,0,1,1,2,2,3,3,4,4,5,5,6,6,7,7,8,8,9,9,10,10,11,11,12,12,13,13,14,14,16,16,17,17,18,18,19,19,20,20,21,21,22,22,24,24,25,25,26,26,27,27,29,29,32,32,33,33,34,34,35,35,36,36,37,37,40,40,41,41,42,42,43,43,45,45,46,46,47,47,48,48,50,50,53,53,54,54,55,55,56,56,59,59,60,60,62,62,64,64,65,65,67,67,69,69,71,71,73,73,74,74,77,77,78,78,79,79,81,81,82,82,84,84,85,85,88,88],"right_children":[2,4,6,8,10,12,14,16,18,20,22,24,26,28,30,-1,32,34,36,38,40,42,44,-1,46,48,50,52,-1,54,-1,-1,56,58,60,62,64,66,-1,-1,68,70,72,74,-1,76,78,80,82,-1,84,-1,-1,86,88,90,92,-1,-1,94,96,-1,98,-1,100,102,-1,104,-1,106,-1,108,-1,110,112,-1,-1,114,116,118,-1,120,122,-1,124,126,-1,-1,128,-1,-1,-1,-1,-1,-1,-1,-1,-1,-1,-1,-1,-1,-1,-1,-1,-1,-1,-1,-1,-1,-1,-1,-1,-1,-1,-1,-1,-1,-1,-1,-1,-1,-1,-1,-1,-1,-1,-1,-1],"split_conditions":[1.2134E-1,2.131E-2,4.5135E-1,8.7E-3,3E0,2E0,3.7450946E-3,1.0184565E0,3E0,2.4545866E-3,4.711E-2,2.4545866E-3,9.650316E-1,8.0591E-1,7.5215024E-1,-2.7135432E-2,4.49E-3,2.4545866E-3,9.722598E-1,6.678331E-1,3.7450946E-3,6.919925E-1,8.918202E-1,4.0164134E-3,3E0,7.4959946E-1,2.0842E-1,8.345991E-1,5.03241E-2,7.4959946E-1,5.679165E-2,-2.5234457E-2,1.3017267E0,6.5124375E-1,4.500771E-1,1.0184565E0,4.9472474E-3,6.011E-2,-1.6166573E-2,1.7076721E-2,1.3017267E0,4.9472474E-3,2.4545866E-3,7.5960286E-2,-2.3403117E-2,1.0013932E0,3.5298714E-1,7.200421E-1,7.5044733E-1,-2.0457873E-2,8.463685E-1,2.2481304E-2,-4.4834157E-3,1.0184565E0,7.5044733E-1,2.4545866E-3,6.3852507E-1,-9.279093E-3,-2.0705756E-2,1.0013932E0,9.776532E-1,3.221924E-3,4.500771E-1,-2.4274739E-2,1.0013932E0,3.846E-2,-8.83473E-5,9.852073E-1,2.5944304E-2,6.492815E-1,2.0792611E-2,1.0013932E0,-2.3596052E-2,4.1287407E-1,4.9472474E-3,3.1912703E-2,6.135431E-2,1.1074851E-1,8E-1,7.2E-1,8.8799596E-2,3.7450946E-3,7.9889995E-1,9.138412E-4,3.3418E-1,9.956404E-1,5.5743407E-2,1.7369173E-2,8.0146575E-1,-2.180661E-2,1.1660554E-2,-1.9677503E-2,-2.6116153E-2,-5.4231137E-3,1.7892133E-2,7.32908E-2,3.8310213E-3,-2.3895247E-2,-7.779969E-3,-2.3863683E-2,-0E0,6.5936707E-3,3.1454362E-2,6.3387886E-2,3.48349E-2,1.1064632E-4,-1.6927319E-2,-2.1488784E-2,-7.638787E-3,-0E0,-1.933943E-2,1.9430374E-3,3.9860897E-2,-1.1250189E-2,-0E0,5.9166357E-2,2.4307106E-2,3.1566948E-2,-0E0,-2.159764E-2,-6.612293E-3,5.9803266E-2,-1.490139E-2,-1.1155552E-2,-1.2206957E-3,4.6685815E-2,2.0155191E-2,3.705082E-2,5.325364E-2],"split_indices":[9,9,9,9,1,3,2,6,1,4,9,4,14,9,9,0,9,4,2,13,2,12,14,0,1,13,9,14,0,13,0,0,1,13,13,6,5,9,0,0,1,5,4,8,0,8,13,13,13,0,4,0,0,6,13,4,4,0,0,8,12,0,13,0,8,9,0,14,0,4,0,8,0,13,5,0,0,12,13,13,0,2,13,0,9,5,0,0,13,0,0,0,0,0,0,0,0,0,0,0,0,0,0,0,0,0,0,0,0,0,0,0,0,0,0,0,0,0,0,0,0,0,0,0,0,0,0,0,0],"split_type":[0,0,0,0,0,0,0,0,0,0,0,0,0,0,0,0,0,0,0,0,0,0,0,0,0,0,0,0,0,0,0,0,0,0,0,0,0,0,0,0,0,0,0,0,0,0,0,0,0,0,0,0,0,0,0,0,0,0,0,0,0,0,0,0,0,0,0,0,0,0,0,0,0,0,0,0,0,0,0,0,0,0,0,0,0,0,0,0,0,0,0,0,0,0,0,0,0,0,0,0,0,0,0,0,0,0,0,0,0,0,0,0,0,0,0,0,0,0,0,0,0,0,0,0,0,0,0,0,0],"sum_hessian":[5.0830693E3,3.530208E3,1.5528612E3,3.0072375E3,5.229705E2,4.35826E2,1.1170353E3,2.580325E3,4.2691235E2,1.3496724E2,3.8800333E2,1.4924928E2,2.865767E2,4.5637653E1,1.0713976E3,1.2212067E3,1.3591184E3,8.515523E1,3.4175714E2,5.531766E1,7.964957E1,1.9859633E2,1.8940698E2,8.371925E0,1.4087735E2,2.4770996E2,3.8866737E1,2.0182959E1,2.5454695E1,3.187856E2,7.52612E2,1.0373131E3,3.218053E2,3.6216663E1,4.893857E1,2.718294E1,3.145742E2,2.585807E1,2.9459593E1,7.5452795E0,7.2104294E1,5.965619E1,1.3894014E2,1.6949406E2,1.9912918E1,6.858056E1,7.22968E1,1.9009349E2,5.7616467E1,1.4152152E1,2.4714586E1,1.1929598E1,8.253362E0,2.381573E2,8.062831E1,6.692679E1,2.5487851E2,1.3624038E1,2.2592625E1,2.996422E1,1.8974346E1,8.48384E0,1.86991E1,2.588841E2,5.569008E1,1.4765178E1,1.1092893E1,6.486059E1,7.2437E0,5.081073E1,8.845456E0,3.5124817E1,1.0381532E2,3.4851177E1,1.346429E2,8.724065E0,5.9856495E1,1.4216259E1,5.808054E1,1.8196008E2,8.133407E0,2.7795015E1,2.9821453E1,8.716063E0,